digraph Tree {
node [shape=box, style="filled, rounded", color="black", fontname=helvetica] ;
edge [fontname=helvetica] ;
0 [label="price <= 4.74\ngini = 0.5\nsamples = 57841\nvalue = [45602, 45831]\nclass = Available", fillcolor="#399de501"] ;
1 [label="number_of_reviews <= 1.87\ngini = 0.5\nsamples = 34154\nvalue = [29494, 24530]\nclass = Not Available", fillcolor="#e581392b"] ;
0 -> 1 [labeldistance=2.5, labelangle=45, headlabel="True"] ;
2 [label="weekday <= 3.5\ngini = 0.47\nsamples = 15469\nvalue = [14974, 9480]\nclass = Not Available", fillcolor="#e581395e"] ;
1 -> 2 ;
3 [label="price <= 4.71\ngini = 0.48\nsamples = 8955\nvalue = [8552, 5619]\nclass = Not Available", fillcolor="#e5813957"] ;
2 -> 3 ;
4 [label="number_of_reviews <= 0.35\ngini = 0.5\nsamples = 6866\nvalue = [5299, 5587]\nclass = Available", fillcolor="#399de50d"] ;
3 -> 4 ;
5 [label="host_is_superhost <= 0.5\ngini = 0.5\nsamples = 3780\nvalue = [3015, 2952]\nclass = Not Available", fillcolor="#e5813905"] ;
4 -> 5 ;
6 [label="bedrooms <= 1.5\ngini = 0.5\nsamples = 3650\nvalue = [2886, 2888]\nclass = Available", fillcolor="#399de500"] ;
5 -> 6 ;
7 [label="number_of_reviews <= -3.45\ngini = 0.5\nsamples = 3380\nvalue = [2569, 2764]\nclass = Available", fillcolor="#399de512"] ;
6 -> 7 ;
8 [label="price <= 3.65\ngini = 0.5\nsamples = 2363\nvalue = [1782, 1955]\nclass = Available", fillcolor="#399de517"] ;
7 -> 8 ;
9 [label="price <= 3.11\ngini = 0.37\nsamples = 128\nvalue = [149, 48]\nclass = Not Available", fillcolor="#e58139ad"] ;
8 -> 9 ;
10 [label="(...)", fillcolor="#C0C0C0"] ;
9 -> 10 ;
13 [label="(...)", fillcolor="#C0C0C0"] ;
9 -> 13 ;
50 [label="price <= 4.24\ngini = 0.5\nsamples = 2235\nvalue = [1633, 1907]\nclass = Available", fillcolor="#399de525"] ;
8 -> 50 ;
51 [label="(...)", fillcolor="#C0C0C0"] ;
50 -> 51 ;
240 [label="(...)", fillcolor="#C0C0C0"] ;
50 -> 240 ;
539 [label="bedrooms <= 0.5\ngini = 0.5\nsamples = 1017\nvalue = [787, 809]\nclass = Available", fillcolor="#399de507"] ;
7 -> 539 ;
540 [label="weekday <= 1.5\ngini = 0.5\nsamples = 239\nvalue = [193, 176]\nclass = Not Available", fillcolor="#e5813916"] ;
539 -> 540 ;
541 [label="(...)", fillcolor="#C0C0C0"] ;
540 -> 541 ;
598 [label="(...)", fillcolor="#C0C0C0"] ;
540 -> 598 ;
667 [label="weekday <= 0.5\ngini = 0.5\nsamples = 778\nvalue = [594, 633]\nclass = Available", fillcolor="#399de510"] ;
539 -> 667 ;
668 [label="(...)", fillcolor="#C0C0C0"] ;
667 -> 668 ;
741 [label="(...)", fillcolor="#C0C0C0"] ;
667 -> 741 ;
954 [label="price <= 4.67\ngini = 0.4\nsamples = 270\nvalue = [317, 124]\nclass = Not Available", fillcolor="#e581399b"] ;
6 -> 954 ;
955 [label="price <= 4.56\ngini = 0.35\nsamples = 230\nvalue = [286, 83]\nclass = Not Available", fillcolor="#e58139b5"] ;
954 -> 955 ;
956 [label="weekday <= 2.5\ngini = 0.48\nsamples = 72\nvalue = [70, 46]\nclass = Not Available", fillcolor="#e5813957"] ;
955 -> 956 ;
957 [label="(...)", fillcolor="#C0C0C0"] ;
956 -> 957 ;
982 [label="(...)", fillcolor="#C0C0C0"] ;
956 -> 982 ;
989 [label="weekday <= 2.5\ngini = 0.25\nsamples = 158\nvalue = [216, 37]\nclass = Not Available", fillcolor="#e58139d3"] ;
955 -> 989 ;
990 [label="(...)", fillcolor="#C0C0C0"] ;
989 -> 990 ;
1027 [label="(...)", fillcolor="#C0C0C0"] ;
989 -> 1027 ;
1038 [label="number_of_reviews <= -3.45\ngini = 0.49\nsamples = 40\nvalue = [31, 41]\nclass = Available", fillcolor="#399de53e"] ;
954 -> 1038 ;
1039 [label="price <= 4.7\ngini = 0.37\nsamples = 20\nvalue = [9, 28]\nclass = Available", fillcolor="#399de5ad"] ;
1038 -> 1039 ;
1040 [label="(...)", fillcolor="#C0C0C0"] ;
1039 -> 1040 ;
1041 [label="(...)", fillcolor="#C0C0C0"] ;
1039 -> 1041 ;
1048 [label="weekday <= 0.5\ngini = 0.47\nsamples = 20\nvalue = [22, 13]\nclass = Not Available", fillcolor="#e5813968"] ;
1038 -> 1048 ;
1049 [label="(...)", fillcolor="#C0C0C0"] ;
1048 -> 1049 ;
1052 [label="(...)", fillcolor="#C0C0C0"] ;
1048 -> 1052 ;
1061 [label="price <= 4.6\ngini = 0.44\nsamples = 130\nvalue = [129, 64]\nclass = Not Available", fillcolor="#e5813980"] ;
5 -> 1061 ;
1062 [label="number_of_reviews <= -3.45\ngini = 0.37\nsamples = 115\nvalue = [129, 41]\nclass = Not Available", fillcolor="#e58139ae"] ;
1061 -> 1062 ;
1063 [label="price <= 4.03\ngini = 0.44\nsamples = 68\nvalue = [66, 33]\nclass = Not Available", fillcolor="#e581397f"] ;
1062 -> 1063 ;
1064 [label="weekday <= 2.5\ngini = 0.43\nsamples = 11\nvalue = [6, 13]\nclass = Available", fillcolor="#399de589"] ;
1063 -> 1064 ;
1065 [label="(...)", fillcolor="#C0C0C0"] ;
1064 -> 1065 ;
1070 [label="(...)", fillcolor="#C0C0C0"] ;
1064 -> 1070 ;
1071 [label="bedrooms <= 0.5\ngini = 0.38\nsamples = 57\nvalue = [60, 20]\nclass = Not Available", fillcolor="#e58139aa"] ;
1063 -> 1071 ;
1072 [label="(...)", fillcolor="#C0C0C0"] ;
1071 -> 1072 ;
1077 [label="(...)", fillcolor="#C0C0C0"] ;
1071 -> 1077 ;
1100 [label="weekday <= 2.5\ngini = 0.2\nsamples = 47\nvalue = [63, 8]\nclass = Not Available", fillcolor="#e58139df"] ;
1062 -> 1100 ;
1101 [label="price <= 4.47\ngini = 0.11\nsamples = 36\nvalue = [50, 3]\nclass = Not Available", fillcolor="#e58139f0"] ;
1100 -> 1101 ;
1102 [label="(...)", fillcolor="#C0C0C0"] ;
1101 -> 1102 ;
1103 [label="(...)", fillcolor="#C0C0C0"] ;
1101 -> 1103 ;
1110 [label="price <= 4.47\ngini = 0.4\nsamples = 11\nvalue = [13, 5]\nclass = Not Available", fillcolor="#e581399d"] ;
1100 -> 1110 ;
1111 [label="(...)", fillcolor="#C0C0C0"] ;
1110 -> 1111 ;
1112 [label="(...)", fillcolor="#C0C0C0"] ;
1110 -> 1112 ;
1115 [label="gini = 0.0\nsamples = 15\nvalue = [0, 23]\nclass = Available", fillcolor="#399de5ff"] ;
1061 -> 1115 ;
1116 [label="number_of_reviews <= 1.5\ngini = 0.5\nsamples = 3086\nvalue = [2284, 2635]\nclass = Available", fillcolor="#399de522"] ;
4 -> 1116 ;
1117 [label="price <= 3.28\ngini = 0.5\nsamples = 2161\nvalue = [1651, 1813]\nclass = Available", fillcolor="#399de517"] ;
1116 -> 1117 ;
1118 [label="number_of_reviews <= 0.9\ngini = 0.04\nsamples = 34\nvalue = [51, 1]\nclass = Not Available", fillcolor="#e58139fa"] ;
1117 -> 1118 ;
1119 [label="weekday <= 1.5\ngini = 0.09\nsamples = 15\nvalue = [21, 1]\nclass = Not Available", fillcolor="#e58139f3"] ;
1118 -> 1119 ;
1120 [label="weekday <= 0.5\ngini = 0.18\nsamples = 8\nvalue = [9, 1]\nclass = Not Available", fillcolor="#e58139e3"] ;
1119 -> 1120 ;
1121 [label="(...)", fillcolor="#C0C0C0"] ;
1120 -> 1121 ;
1122 [label="(...)", fillcolor="#C0C0C0"] ;
1120 -> 1122 ;
1123 [label="gini = 0.0\nsamples = 7\nvalue = [12, 0]\nclass = Not Available", fillcolor="#e58139ff"] ;
1119 -> 1123 ;
1124 [label="gini = 0.0\nsamples = 19\nvalue = [30, 0]\nclass = Not Available", fillcolor="#e58139ff"] ;
1118 -> 1124 ;
1125 [label="price <= 4.25\ngini = 0.5\nsamples = 2127\nvalue = [1600, 1812]\nclass = Available", fillcolor="#399de51e"] ;
1117 -> 1125 ;
1126 [label="price <= 4.21\ngini = 0.49\nsamples = 1032\nvalue = [727, 946]\nclass = Available", fillcolor="#399de53b"] ;
1125 -> 1126 ;
1127 [label="price <= 4.21\ngini = 0.5\nsamples = 863\nvalue = [677, 728]\nclass = Available", fillcolor="#399de512"] ;
1126 -> 1127 ;
1128 [label="(...)", fillcolor="#C0C0C0"] ;
1127 -> 1128 ;
1453 [label="(...)", fillcolor="#C0C0C0"] ;
1127 -> 1453 ;
1454 [label="number_of_reviews <= 1.24\ngini = 0.3\nsamples = 169\nvalue = [50, 218]\nclass = Available", fillcolor="#399de5c5"] ;
1126 -> 1454 ;
1455 [label="(...)", fillcolor="#C0C0C0"] ;
1454 -> 1455 ;
1488 [label="(...)", fillcolor="#C0C0C0"] ;
1454 -> 1488 ;
1493 [label="price <= 4.58\ngini = 0.5\nsamples = 1095\nvalue = [873, 866]\nclass = Not Available", fillcolor="#e5813902"] ;
1125 -> 1493 ;
1494 [label="price <= 4.56\ngini = 0.49\nsamples = 622\nvalue = [544, 432]\nclass = Not Available", fillcolor="#e5813934"] ;
1493 -> 1494 ;
1495 [label="(...)", fillcolor="#C0C0C0"] ;
1494 -> 1495 ;
1770 [label="(...)", fillcolor="#C0C0C0"] ;
1494 -> 1770 ;
1789 [label="host_is_superhost <= 0.5\ngini = 0.49\nsamples = 473\nvalue = [329, 434]\nclass = Available", fillcolor="#399de53e"] ;
1493 -> 1789 ;
1790 [label="(...)", fillcolor="#C0C0C0"] ;
1789 -> 1790 ;
1975 [label="(...)", fillcolor="#C0C0C0"] ;
1789 -> 1975 ;
1990 [label="price <= 3.68\ngini = 0.49\nsamples = 925\nvalue = [633, 822]\nclass = Available", fillcolor="#399de53b"] ;
1116 -> 1990 ;
1991 [label="gini = 0.0\nsamples = 25\nvalue = [41, 0]\nclass = Not Available", fillcolor="#e58139ff"] ;
1990 -> 1991 ;
1992 [label="price <= 4.3\ngini = 0.49\nsamples = 900\nvalue = [592, 822]\nclass = Available", fillcolor="#399de547"] ;
1990 -> 1992 ;
1993 [label="bedrooms <= 0.5\ngini = 0.39\nsamples = 263\nvalue = [109, 304]\nclass = Available", fillcolor="#399de5a4"] ;
1992 -> 1993 ;
1994 [label="gini = 0.0\nsamples = 14\nvalue = [0, 22]\nclass = Available", fillcolor="#399de5ff"] ;
1993 -> 1994 ;
1995 [label="price <= 4.05\ngini = 0.4\nsamples = 249\nvalue = [109, 282]\nclass = Available", fillcolor="#399de59c"] ;
1993 -> 1995 ;
1996 [label="(...)", fillcolor="#C0C0C0"] ;
1995 -> 1996 ;
2073 [label="(...)", fillcolor="#C0C0C0"] ;
1995 -> 2073 ;
2096 [label="price <= 4.63\ngini = 0.5\nsamples = 637\nvalue = [483, 518]\nclass = Available", fillcolor="#399de511"] ;
1992 -> 2096 ;
2097 [label="bedrooms <= 2.5\ngini = 0.5\nsamples = 547\nvalue = [457, 403]\nclass = Not Available", fillcolor="#e581391e"] ;
2096 -> 2097 ;
2098 [label="(...)", fillcolor="#C0C0C0"] ;
2097 -> 2098 ;
2381 [label="(...)", fillcolor="#C0C0C0"] ;
2097 -> 2381 ;
2386 [label="price <= 4.7\ngini = 0.3\nsamples = 90\nvalue = [26, 115]\nclass = Available", fillcolor="#399de5c5"] ;
2096 -> 2386 ;
2387 [label="(...)", fillcolor="#C0C0C0"] ;
2386 -> 2387 ;
2402 [label="(...)", fillcolor="#C0C0C0"] ;
2386 -> 2402 ;
2415 [label="price <= 4.73\ngini = 0.02\nsamples = 2089\nvalue = [3253, 32]\nclass = Not Available", fillcolor="#e58139fc"] ;
3 -> 2415 ;
2416 [label="price <= 4.72\ngini = 0.0\nsamples = 2054\nvalue = [3216, 8]\nclass = Not Available", fillcolor="#e58139fe"] ;
2415 -> 2416 ;
2417 [label="number_of_reviews <= -3.45\ngini = 0.13\nsamples = 75\nvalue = [109, 8]\nclass = Not Available", fillcolor="#e58139ec"] ;
2416 -> 2417 ;
2418 [label="weekday <= 2.5\ngini = 0.26\nsamples = 27\nvalue = [38, 7]\nclass = Not Available", fillcolor="#e58139d0"] ;
2417 -> 2418 ;
2419 [label="price <= 4.72\ngini = 0.19\nsamples = 20\nvalue = [33, 4]\nclass = Not Available", fillcolor="#e58139e0"] ;
2418 -> 2419 ;
2420 [label="gini = 0.0\nsamples = 12\nvalue = [20, 0]\nclass = Not Available", fillcolor="#e58139ff"] ;
2419 -> 2420 ;
2421 [label="weekday <= 1.5\ngini = 0.36\nsamples = 8\nvalue = [13, 4]\nclass = Not Available", fillcolor="#e58139b1"] ;
2419 -> 2421 ;
2422 [label="(...)", fillcolor="#C0C0C0"] ;
2421 -> 2422 ;
2425 [label="(...)", fillcolor="#C0C0C0"] ;
2421 -> 2425 ;
2426 [label="price <= 4.72\ngini = 0.47\nsamples = 7\nvalue = [5, 3]\nclass = Not Available", fillcolor="#e5813966"] ;
2418 -> 2426 ;
2427 [label="gini = 0.0\nsamples = 2\nvalue = [2, 0]\nclass = Not Available", fillcolor="#e58139ff"] ;
2426 -> 2427 ;
2428 [label="gini = 0.5\nsamples = 5\nvalue = [3, 3]\nclass = Not Available", fillcolor="#e5813900"] ;
2426 -> 2428 ;
2429 [label="weekday <= 1.5\ngini = 0.03\nsamples = 48\nvalue = [71, 1]\nclass = Not Available", fillcolor="#e58139fb"] ;
2417 -> 2429 ;
2430 [label="bedrooms <= 2.0\ngini = 0.05\nsamples = 28\nvalue = [41, 1]\nclass = Not Available", fillcolor="#e58139f9"] ;
2429 -> 2430 ;
2431 [label="gini = 0.0\nsamples = 26\nvalue = [40, 0]\nclass = Not Available", fillcolor="#e58139ff"] ;
2430 -> 2431 ;
2432 [label="gini = 0.5\nsamples = 2\nvalue = [1, 1]\nclass = Not Available", fillcolor="#e5813900"] ;
2430 -> 2432 ;
2433 [label="gini = 0.0\nsamples = 20\nvalue = [30, 0]\nclass = Not Available", fillcolor="#e58139ff"] ;
2429 -> 2433 ;
2434 [label="gini = 0.0\nsamples = 1979\nvalue = [3107, 0]\nclass = Not Available", fillcolor="#e58139ff"] ;
2416 -> 2434 ;
2435 [label="bedrooms <= 2.0\ngini = 0.48\nsamples = 35\nvalue = [37, 24]\nclass = Not Available", fillcolor="#e581395a"] ;
2415 -> 2435 ;
2436 [label="host_is_superhost <= 0.5\ngini = 0.37\nsamples = 33\nvalue = [37, 12]\nclass = Not Available", fillcolor="#e58139ac"] ;
2435 -> 2436 ;
2437 [label="price <= 4.73\ngini = 0.46\nsamples = 23\nvalue = [22, 12]\nclass = Not Available", fillcolor="#e5813974"] ;
2436 -> 2437 ;
2438 [label="gini = 0.0\nsamples = 3\nvalue = [0, 4]\nclass = Available", fillcolor="#399de5ff"] ;
2437 -> 2438 ;
2439 [label="number_of_reviews <= -3.45\ngini = 0.39\nsamples = 20\nvalue = [22, 8]\nclass = Not Available", fillcolor="#e58139a2"] ;
2437 -> 2439 ;
2440 [label="gini = 0.0\nsamples = 2\nvalue = [0, 3]\nclass = Available", fillcolor="#399de5ff"] ;
2439 -> 2440 ;
2441 [label="weekday <= 0.5\ngini = 0.3\nsamples = 18\nvalue = [22, 5]\nclass = Not Available", fillcolor="#e58139c5"] ;
2439 -> 2441 ;
2442 [label="(...)", fillcolor="#C0C0C0"] ;
2441 -> 2442 ;
2443 [label="(...)", fillcolor="#C0C0C0"] ;
2441 -> 2443 ;
2452 [label="gini = 0.0\nsamples = 10\nvalue = [15, 0]\nclass = Not Available", fillcolor="#e58139ff"] ;
2436 -> 2452 ;
2453 [label="gini = 0.0\nsamples = 2\nvalue = [0, 12]\nclass = Available", fillcolor="#399de5ff"] ;
2435 -> 2453 ;
2454 [label="price <= 4.7\ngini = 0.47\nsamples = 6514\nvalue = [6422, 3861]\nclass = Not Available", fillcolor="#e5813966"] ;
2 -> 2454 ;
2455 [label="price <= 3.69\ngini = 0.5\nsamples = 4911\nvalue = [3871, 3843]\nclass = Not Available", fillcolor="#e5813902"] ;
2454 -> 2455 ;
2456 [label="price <= 3.11\ngini = 0.43\nsamples = 297\nvalue = [324, 151]\nclass = Not Available", fillcolor="#e5813988"] ;
2455 -> 2456 ;
2457 [label="gini = 0.0\nsamples = 6\nvalue = [0, 8]\nclass = Available", fillcolor="#399de5ff"] ;
2456 -> 2457 ;
2458 [label="price <= 3.67\ngini = 0.42\nsamples = 291\nvalue = [324, 143]\nclass = Not Available", fillcolor="#e581398e"] ;
2456 -> 2458 ;
2459 [label="number_of_reviews <= 1.24\ngini = 0.44\nsamples = 276\nvalue = [298, 143]\nclass = Not Available", fillcolor="#e5813985"] ;
2458 -> 2459 ;
2460 [label="price <= 3.66\ngini = 0.47\nsamples = 236\nvalue = [236, 139]\nclass = Not Available", fillcolor="#e5813969"] ;
2459 -> 2460 ;
2461 [label="host_is_superhost <= 0.5\ngini = 0.44\nsamples = 188\nvalue = [208, 100]\nclass = Not Available", fillcolor="#e5813984"] ;
2460 -> 2461 ;
2462 [label="(...)", fillcolor="#C0C0C0"] ;
2461 -> 2462 ;
2533 [label="(...)", fillcolor="#C0C0C0"] ;
2461 -> 2533 ;
2536 [label="number_of_reviews <= 0.9\ngini = 0.49\nsamples = 48\nvalue = [28, 39]\nclass = Available", fillcolor="#399de548"] ;
2460 -> 2536 ;
2537 [label="(...)", fillcolor="#C0C0C0"] ;
2536 -> 2537 ;
2548 [label="(...)", fillcolor="#C0C0C0"] ;
2536 -> 2548 ;
2553 [label="weekday <= 4.5\ngini = 0.11\nsamples = 40\nvalue = [62, 4]\nclass = Not Available", fillcolor="#e58139ef"] ;
2459 -> 2553 ;
2554 [label="gini = 0.0\nsamples = 13\nvalue = [18, 0]\nclass = Not Available", fillcolor="#e58139ff"] ;
2553 -> 2554 ;
2555 [label="number_of_reviews <= 1.59\ngini = 0.15\nsamples = 27\nvalue = [44, 4]\nclass = Not Available", fillcolor="#e58139e8"] ;
2553 -> 2555 ;
2556 [label="(...)", fillcolor="#C0C0C0"] ;
2555 -> 2556 ;
2565 [label="(...)", fillcolor="#C0C0C0"] ;
2555 -> 2565 ;
2568 [label="gini = 0.0\nsamples = 15\nvalue = [26, 0]\nclass = Not Available", fillcolor="#e58139ff"] ;
2458 -> 2568 ;
2569 [label="bedrooms <= 1.5\ngini = 0.5\nsamples = 4614\nvalue = [3547, 3692]\nclass = Available", fillcolor="#399de50a"] ;
2455 -> 2569 ;
2570 [label="price <= 4.24\ngini = 0.5\nsamples = 4211\nvalue = [3148, 3478]\nclass = Available", fillcolor="#399de518"] ;
2569 -> 2570 ;
2571 [label="host_is_superhost <= 0.5\ngini = 0.48\nsamples = 1590\nvalue = [1039, 1475]\nclass = Available", fillcolor="#399de54b"] ;
2570 -> 2571 ;
2572 [label="price <= 4.07\ngini = 0.49\nsamples = 1547\nvalue = [1016, 1426]\nclass = Available", fillcolor="#399de549"] ;
2571 -> 2572 ;
2573 [label="price <= 4.02\ngini = 0.5\nsamples = 997\nvalue = [715, 860]\nclass = Available", fillcolor="#399de52b"] ;
2572 -> 2573 ;
2574 [label="(...)", fillcolor="#C0C0C0"] ;
2573 -> 2574 ;
2869 [label="(...)", fillcolor="#C0C0C0"] ;
2573 -> 2869 ;
2888 [label="price <= 4.08\ngini = 0.45\nsamples = 550\nvalue = [301, 566]\nclass = Available", fillcolor="#399de577"] ;
2572 -> 2888 ;
2889 [label="(...)", fillcolor="#C0C0C0"] ;
2888 -> 2889 ;
2890 [label="(...)", fillcolor="#C0C0C0"] ;
2888 -> 2890 ;
3029 [label="number_of_reviews <= 0.35\ngini = 0.43\nsamples = 43\nvalue = [23, 49]\nclass = Available", fillcolor="#399de587"] ;
2571 -> 3029 ;
3030 [label="number_of_reviews <= -3.45\ngini = 0.46\nsamples = 6\nvalue = [7, 4]\nclass = Not Available", fillcolor="#e581396d"] ;
3029 -> 3030 ;
3031 [label="(...)", fillcolor="#C0C0C0"] ;
3030 -> 3031 ;
3032 [label="(...)", fillcolor="#C0C0C0"] ;
3030 -> 3032 ;
3033 [label="weekday <= 4.5\ngini = 0.39\nsamples = 37\nvalue = [16, 45]\nclass = Available", fillcolor="#399de5a4"] ;
3029 -> 3033 ;
3034 [label="(...)", fillcolor="#C0C0C0"] ;
3033 -> 3034 ;
3043 [label="(...)", fillcolor="#C0C0C0"] ;
3033 -> 3043 ;
3060 [label="number_of_reviews <= 0.35\ngini = 0.5\nsamples = 2621\nvalue = [2109, 2003]\nclass = Not Available", fillcolor="#e581390d"] ;
2570 -> 3060 ;
3061 [label="price <= 4.52\ngini = 0.5\nsamples = 1536\nvalue = [1293, 1132]\nclass = Not Available", fillcolor="#e5813920"] ;
3060 -> 3061 ;
3062 [label="price <= 4.5\ngini = 0.49\nsamples = 881\nvalue = [804, 579]\nclass = Not Available", fillcolor="#e5813947"] ;
3061 -> 3062 ;
3063 [label="(...)", fillcolor="#C0C0C0"] ;
3062 -> 3063 ;
3296 [label="(...)", fillcolor="#C0C0C0"] ;
3062 -> 3296 ;
3297 [label="price <= 4.61\ngini = 0.5\nsamples = 655\nvalue = [489, 553]\nclass = Available", fillcolor="#399de51e"] ;
3061 -> 3297 ;
3298 [label="(...)", fillcolor="#C0C0C0"] ;
3297 -> 3298 ;
3397 [label="(...)", fillcolor="#C0C0C0"] ;
3297 -> 3397 ;
3458 [label="price <= 4.5\ngini = 0.5\nsamples = 1085\nvalue = [816, 871]\nclass = Available", fillcolor="#399de510"] ;
3060 -> 3458 ;
3459 [label="number_of_reviews <= 1.7\ngini = 0.49\nsamples = 560\nvalue = [379, 473]\nclass = Available", fillcolor="#399de533"] ;
3458 -> 3459 ;
3460 [label="(...)", fillcolor="#C0C0C0"] ;
3459 -> 3460 ;
3671 [label="(...)", fillcolor="#C0C0C0"] ;
3459 -> 3671 ;
3718 [label="weekday <= 5.5\ngini = 0.5\nsamples = 525\nvalue = [437, 398]\nclass = Not Available", fillcolor="#e5813917"] ;
3458 -> 3718 ;
3719 [label="(...)", fillcolor="#C0C0C0"] ;
3718 -> 3719 ;
3872 [label="(...)", fillcolor="#C0C0C0"] ;
3718 -> 3872 ;
3973 [label="weekday <= 5.5\ngini = 0.45\nsamples = 403\nvalue = [399, 214]\nclass = Not Available", fillcolor="#e5813976"] ;
2569 -> 3973 ;
3974 [label="price <= 4.64\ngini = 0.41\nsamples = 259\nvalue = [289, 118]\nclass = Not Available", fillcolor="#e5813997"] ;
3973 -> 3974 ;
3975 [label="host_is_superhost <= 0.5\ngini = 0.37\nsamples = 212\nvalue = [253, 84]\nclass = Not Available", fillcolor="#e58139aa"] ;
3974 -> 3975 ;
3976 [label="number_of_reviews <= 0.35\ngini = 0.41\nsamples = 179\nvalue = [203, 81]\nclass = Not Available", fillcolor="#e5813999"] ;
3975 -> 3976 ;
3977 [label="(...)", fillcolor="#C0C0C0"] ;
3976 -> 3977 ;
4016 [label="(...)", fillcolor="#C0C0C0"] ;
3976 -> 4016 ;
4059 [label="price <= 4.47\ngini = 0.11\nsamples = 33\nvalue = [50, 3]\nclass = Not Available", fillcolor="#e58139f0"] ;
3975 -> 4059 ;
4060 [label="(...)", fillcolor="#C0C0C0"] ;
4059 -> 4060 ;
4063 [label="(...)", fillcolor="#C0C0C0"] ;
4059 -> 4063 ;
4068 [label="number_of_reviews <= 0.55\ngini = 0.5\nsamples = 47\nvalue = [36, 34]\nclass = Not Available", fillcolor="#e581390e"] ;
3974 -> 4068 ;
4069 [label="weekday <= 4.5\ngini = 0.4\nsamples = 24\nvalue = [24, 9]\nclass = Not Available", fillcolor="#e581399f"] ;
4068 -> 4069 ;
4070 [label="(...)", fillcolor="#C0C0C0"] ;
4069 -> 4070 ;
4079 [label="(...)", fillcolor="#C0C0C0"] ;
4069 -> 4079 ;
4088 [label="number_of_reviews <= 1.24\ngini = 0.44\nsamples = 23\nvalue = [12, 25]\nclass = Available", fillcolor="#399de585"] ;
4068 -> 4088 ;
4089 [label="(...)", fillcolor="#C0C0C0"] ;
4088 -> 4089 ;
4094 [label="(...)", fillcolor="#C0C0C0"] ;
4088 -> 4094 ;
4099 [label="number_of_reviews <= 1.24\ngini = 0.5\nsamples = 144\nvalue = [110, 96]\nclass = Not Available", fillcolor="#e5813920"] ;
3973 -> 4099 ;
4100 [label="price <= 4.2\ngini = 0.48\nsamples = 118\nvalue = [103, 68]\nclass = Not Available", fillcolor="#e5813957"] ;
4099 -> 4100 ;
4101 [label="gini = 0.22\nsamples = 6\nvalue = [7, 1]\nclass = Not Available", fillcolor="#e58139db"] ;
4100 -> 4101 ;
4102 [label="host_is_superhost <= 0.5\ngini = 0.48\nsamples = 112\nvalue = [96, 67]\nclass = Not Available", fillcolor="#e581394d"] ;
4100 -> 4102 ;
4103 [label="(...)", fillcolor="#C0C0C0"] ;
4102 -> 4103 ;
4146 [label="(...)", fillcolor="#C0C0C0"] ;
4102 -> 4146 ;
4151 [label="number_of_reviews <= 1.7\ngini = 0.32\nsamples = 26\nvalue = [7, 28]\nclass = Available", fillcolor="#399de5bf"] ;
4099 -> 4151 ;
4152 [label="number_of_reviews <= 1.5\ngini = 0.15\nsamples = 18\nvalue = [2, 22]\nclass = Available", fillcolor="#399de5e8"] ;
4151 -> 4152 ;
4153 [label="(...)", fillcolor="#C0C0C0"] ;
4152 -> 4153 ;
4154 [label="(...)", fillcolor="#C0C0C0"] ;
4152 -> 4154 ;
4159 [label="host_is_superhost <= 0.5\ngini = 0.5\nsamples = 8\nvalue = [5, 6]\nclass = Available", fillcolor="#399de52a"] ;
4151 -> 4159 ;
4160 [label="(...)", fillcolor="#C0C0C0"] ;
4159 -> 4160 ;
4163 [label="(...)", fillcolor="#C0C0C0"] ;
4159 -> 4163 ;
4164 [label="price <= 4.73\ngini = 0.01\nsamples = 1603\nvalue = [2551, 18]\nclass = Not Available", fillcolor="#e58139fd"] ;
2454 -> 4164 ;
4165 [label="number_of_reviews <= -3.45\ngini = 0.01\nsamples = 1576\nvalue = [2514, 10]\nclass = Not Available", fillcolor="#e58139fe"] ;
4164 -> 4165 ;
4166 [label="host_is_superhost <= 0.5\ngini = 0.02\nsamples = 694\nvalue = [1084, 9]\nclass = Not Available", fillcolor="#e58139fd"] ;
4165 -> 4166 ;
4167 [label="price <= 4.72\ngini = 0.02\nsamples = 669\nvalue = [1043, 9]\nclass = Not Available", fillcolor="#e58139fd"] ;
4166 -> 4167 ;
4168 [label="weekday <= 5.5\ngini = 0.4\nsamples = 23\nvalue = [24, 9]\nclass = Not Available", fillcolor="#e581399f"] ;
4167 -> 4168 ;
4169 [label="weekday <= 4.5\ngini = 0.35\nsamples = 19\nvalue = [21, 6]\nclass = Not Available", fillcolor="#e58139b6"] ;
4168 -> 4169 ;
4170 [label="(...)", fillcolor="#C0C0C0"] ;
4169 -> 4170 ;
4173 [label="(...)", fillcolor="#C0C0C0"] ;
4169 -> 4173 ;
4176 [label="price <= 4.72\ngini = 0.5\nsamples = 4\nvalue = [3, 3]\nclass = Not Available", fillcolor="#e5813900"] ;
4168 -> 4176 ;
4177 [label="(...)", fillcolor="#C0C0C0"] ;
4176 -> 4177 ;
4178 [label="(...)", fillcolor="#C0C0C0"] ;
4176 -> 4178 ;
4179 [label="gini = 0.0\nsamples = 646\nvalue = [1019, 0]\nclass = Not Available", fillcolor="#e58139ff"] ;
4167 -> 4179 ;
4180 [label="gini = 0.0\nsamples = 25\nvalue = [41, 0]\nclass = Not Available", fillcolor="#e58139ff"] ;
4166 -> 4180 ;
4181 [label="price <= 4.72\ngini = 0.0\nsamples = 882\nvalue = [1430, 1]\nclass = Not Available", fillcolor="#e58139ff"] ;
4165 -> 4181 ;
4182 [label="price <= 4.72\ngini = 0.04\nsamples = 33\nvalue = [48, 1]\nclass = Not Available", fillcolor="#e58139fa"] ;
4181 -> 4182 ;
4183 [label="gini = 0.0\nsamples = 26\nvalue = [35, 0]\nclass = Not Available", fillcolor="#e58139ff"] ;
4182 -> 4183 ;
4184 [label="weekday <= 5.5\ngini = 0.13\nsamples = 7\nvalue = [13, 1]\nclass = Not Available", fillcolor="#e58139eb"] ;
4182 -> 4184 ;
4185 [label="gini = 0.0\nsamples = 4\nvalue = [7, 0]\nclass = Not Available", fillcolor="#e58139ff"] ;
4184 -> 4185 ;
4186 [label="gini = 0.24\nsamples = 3\nvalue = [6, 1]\nclass = Not Available", fillcolor="#e58139d4"] ;
4184 -> 4186 ;
4187 [label="gini = 0.0\nsamples = 849\nvalue = [1382, 0]\nclass = Not Available", fillcolor="#e58139ff"] ;
4181 -> 4187 ;
4188 [label="weekday <= 5.5\ngini = 0.29\nsamples = 27\nvalue = [37, 8]\nclass = Not Available", fillcolor="#e58139c8"] ;
4164 -> 4188 ;
4189 [label="weekday <= 4.5\ngini = 0.17\nsamples = 19\nvalue = [29, 3]\nclass = Not Available", fillcolor="#e58139e5"] ;
4188 -> 4189 ;
4190 [label="price <= 4.73\ngini = 0.28\nsamples = 11\nvalue = [15, 3]\nclass = Not Available", fillcolor="#e58139cc"] ;
4189 -> 4190 ;
4191 [label="gini = 0.0\nsamples = 1\nvalue = [0, 2]\nclass = Available", fillcolor="#399de5ff"] ;
4190 -> 4191 ;
4192 [label="price <= 4.73\ngini = 0.12\nsamples = 10\nvalue = [15, 1]\nclass = Not Available", fillcolor="#e58139ee"] ;
4190 -> 4192 ;
4193 [label="gini = 0.0\nsamples = 2\nvalue = [4, 0]\nclass = Not Available", fillcolor="#e58139ff"] ;
4192 -> 4193 ;
4194 [label="number_of_reviews <= 0.9\ngini = 0.15\nsamples = 8\nvalue = [11, 1]\nclass = Not Available", fillcolor="#e58139e8"] ;
4192 -> 4194 ;
4195 [label="(...)", fillcolor="#C0C0C0"] ;
4194 -> 4195 ;
4196 [label="(...)", fillcolor="#C0C0C0"] ;
4194 -> 4196 ;
4197 [label="gini = 0.0\nsamples = 8\nvalue = [14, 0]\nclass = Not Available", fillcolor="#e58139ff"] ;
4189 -> 4197 ;
4198 [label="bedrooms <= 0.5\ngini = 0.47\nsamples = 8\nvalue = [8, 5]\nclass = Not Available", fillcolor="#e5813960"] ;
4188 -> 4198 ;
4199 [label="gini = 0.0\nsamples = 2\nvalue = [3, 0]\nclass = Not Available", fillcolor="#e58139ff"] ;
4198 -> 4199 ;
4200 [label="host_is_superhost <= 0.5\ngini = 0.5\nsamples = 6\nvalue = [5, 5]\nclass = Not Available", fillcolor="#e5813900"] ;
4198 -> 4200 ;
4201 [label="number_of_reviews <= 1.35\ngini = 0.47\nsamples = 4\nvalue = [3, 5]\nclass = Available", fillcolor="#399de566"] ;
4200 -> 4201 ;
4202 [label="price <= 4.73\ngini = 0.28\nsamples = 3\nvalue = [1, 5]\nclass = Available", fillcolor="#399de5cc"] ;
4201 -> 4202 ;
4203 [label="(...)", fillcolor="#C0C0C0"] ;
4202 -> 4203 ;
4204 [label="(...)", fillcolor="#C0C0C0"] ;
4202 -> 4204 ;
4205 [label="gini = 0.0\nsamples = 1\nvalue = [2, 0]\nclass = Not Available", fillcolor="#e58139ff"] ;
4201 -> 4205 ;
4206 [label="gini = 0.0\nsamples = 2\nvalue = [2, 0]\nclass = Not Available", fillcolor="#e58139ff"] ;
4200 -> 4206 ;
4207 [label="price <= 4.7\ngini = 0.5\nsamples = 18685\nvalue = [14520, 15050]\nclass = Available", fillcolor="#399de509"] ;
1 -> 4207 ;
4208 [label="price <= 4.7\ngini = 0.49\nsamples = 16633\nvalue = [11394, 14899]\nclass = Available", fillcolor="#399de53c"] ;
4207 -> 4208 ;
4209 [label="bedrooms <= 1.5\ngini = 0.49\nsamples = 16162\nvalue = [11220, 14308]\nclass = Available", fillcolor="#399de537"] ;
4208 -> 4209 ;
4210 [label="number_of_reviews <= 4.18\ngini = 0.49\nsamples = 15307\nvalue = [10488, 13719]\nclass = Available", fillcolor="#399de53c"] ;
4209 -> 4210 ;
4211 [label="price <= 4.66\ngini = 0.49\nsamples = 12427\nvalue = [8717, 10879]\nclass = Available", fillcolor="#399de533"] ;
4210 -> 4211 ;
4212 [label="bedrooms <= 0.5\ngini = 0.49\nsamples = 12156\nvalue = [8424, 10738]\nclass = Available", fillcolor="#399de537"] ;
4211 -> 4212 ;
4213 [label="host_is_superhost <= 0.5\ngini = 0.5\nsamples = 1426\nvalue = [1157, 1058]\nclass = Not Available", fillcolor="#e5813916"] ;
4212 -> 4213 ;
4214 [label="price <= 4.21\ngini = 0.5\nsamples = 970\nvalue = [741, 768]\nclass = Available", fillcolor="#399de509"] ;
4213 -> 4214 ;
4215 [label="(...)", fillcolor="#C0C0C0"] ;
4214 -> 4215 ;
4220 [label="(...)", fillcolor="#C0C0C0"] ;
4214 -> 4220 ;
4663 [label="price <= 4.36\ngini = 0.48\nsamples = 456\nvalue = [416, 290]\nclass = Not Available", fillcolor="#e581394d"] ;
4213 -> 4663 ;
4664 [label="(...)", fillcolor="#C0C0C0"] ;
4663 -> 4664 ;
4665 [label="(...)", fillcolor="#C0C0C0"] ;
4663 -> 4665 ;
4924 [label="host_is_superhost <= 0.5\ngini = 0.49\nsamples = 10730\nvalue = [7267, 9680]\nclass = Available", fillcolor="#399de540"] ;
4212 -> 4924 ;
4925 [label="number_of_reviews <= 3.28\ngini = 0.49\nsamples = 7765\nvalue = [5160, 7040]\nclass = Available", fillcolor="#399de544"] ;
4924 -> 4925 ;
4926 [label="(...)", fillcolor="#C0C0C0"] ;
4925 -> 4926 ;
7709 [label="(...)", fillcolor="#C0C0C0"] ;
4925 -> 7709 ;
8762 [label="price <= 4.32\ngini = 0.49\nsamples = 2965\nvalue = [2107, 2640]\nclass = Available", fillcolor="#399de533"] ;
4924 -> 8762 ;
8763 [label="(...)", fillcolor="#C0C0C0"] ;
8762 -> 8763 ;
9368 [label="(...)", fillcolor="#C0C0C0"] ;
8762 -> 9368 ;
10169 [label="bedrooms <= 0.5\ngini = 0.44\nsamples = 271\nvalue = [293, 141]\nclass = Not Available", fillcolor="#e5813984"] ;
4211 -> 10169 ;
10170 [label="number_of_reviews <= 2.07\ngini = 0.49\nsamples = 59\nvalue = [49, 35]\nclass = Not Available", fillcolor="#e5813949"] ;
10169 -> 10170 ;
10171 [label="weekday <= 5.5\ngini = 0.47\nsamples = 24\nvalue = [13, 22]\nclass = Available", fillcolor="#399de568"] ;
10170 -> 10171 ;
10172 [label="(...)", fillcolor="#C0C0C0"] ;
10171 -> 10172 ;
10183 [label="(...)", fillcolor="#C0C0C0"] ;
10171 -> 10183 ;
10184 [label="number_of_reviews <= 3.33\ngini = 0.39\nsamples = 35\nvalue = [36, 13]\nclass = Not Available", fillcolor="#e58139a3"] ;
10170 -> 10184 ;
10185 [label="(...)", fillcolor="#C0C0C0"] ;
10184 -> 10185 ;
10190 [label="(...)", fillcolor="#C0C0C0"] ;
10184 -> 10190 ;
10195 [label="number_of_reviews <= 3.13\ngini = 0.42\nsamples = 212\nvalue = [244, 106]\nclass = Not Available", fillcolor="#e5813990"] ;
10169 -> 10195 ;
10196 [label="host_is_superhost <= 0.5\ngini = 0.39\nsamples = 177\nvalue = [217, 77]\nclass = Not Available", fillcolor="#e58139a5"] ;
10195 -> 10196 ;
10197 [label="(...)", fillcolor="#C0C0C0"] ;
10196 -> 10197 ;
10244 [label="(...)", fillcolor="#C0C0C0"] ;
10196 -> 10244 ;
10279 [label="weekday <= 5.5\ngini = 0.5\nsamples = 35\nvalue = [27, 29]\nclass = Available", fillcolor="#399de512"] ;
10195 -> 10279 ;
10280 [label="(...)", fillcolor="#C0C0C0"] ;
10279 -> 10280 ;
10291 [label="(...)", fillcolor="#C0C0C0"] ;
10279 -> 10291 ;
10294 [label="host_is_superhost <= 0.5\ngini = 0.47\nsamples = 2880\nvalue = [1771, 2840]\nclass = Available", fillcolor="#399de560"] ;
4210 -> 10294 ;
10295 [label="weekday <= 5.5\ngini = 0.45\nsamples = 1565\nvalue = [855, 1672]\nclass = Available", fillcolor="#399de57d"] ;
10294 -> 10295 ;
10296 [label="bedrooms <= 0.5\ngini = 0.45\nsamples = 1321\nvalue = [744, 1392]\nclass = Available", fillcolor="#399de577"] ;
10295 -> 10296 ;
10297 [label="number_of_reviews <= 4.64\ngini = 0.36\nsamples = 92\nvalue = [36, 114]\nclass = Available", fillcolor="#399de5ae"] ;
10296 -> 10297 ;
10298 [label="(...)", fillcolor="#C0C0C0"] ;
10297 -> 10298 ;
10331 [label="(...)", fillcolor="#C0C0C0"] ;
10297 -> 10331 ;
10340 [label="weekday <= 3.5\ngini = 0.46\nsamples = 1229\nvalue = [708, 1278]\nclass = Available", fillcolor="#399de572"] ;
10296 -> 10340 ;
10341 [label="(...)", fillcolor="#C0C0C0"] ;
10340 -> 10341 ;
10722 [label="(...)", fillcolor="#C0C0C0"] ;
10340 -> 10722 ;
10957 [label="price <= 4.45\ngini = 0.41\nsamples = 244\nvalue = [111, 280]\nclass = Available", fillcolor="#399de59a"] ;
10295 -> 10957 ;
10958 [label="bedrooms <= 0.5\ngini = 0.33\nsamples = 167\nvalue = [56, 211]\nclass = Available", fillcolor="#399de5bb"] ;
10957 -> 10958 ;
10959 [label="(...)", fillcolor="#C0C0C0"] ;
10958 -> 10959 ;
10960 [label="(...)", fillcolor="#C0C0C0"] ;
10958 -> 10960 ;
11019 [label="number_of_reviews <= 5.04\ngini = 0.49\nsamples = 77\nvalue = [55, 69]\nclass = Available", fillcolor="#399de534"] ;
10957 -> 11019 ;
11020 [label="(...)", fillcolor="#C0C0C0"] ;
11019 -> 11020 ;
11053 [label="(...)", fillcolor="#C0C0C0"] ;
11019 -> 11053 ;
11060 [label="weekday <= 2.5\ngini = 0.49\nsamples = 1315\nvalue = [916, 1168]\nclass = Available", fillcolor="#399de537"] ;
10294 -> 11060 ;
11061 [label="bedrooms <= 0.5\ngini = 0.48\nsamples = 588\nvalue = [367, 561]\nclass = Available", fillcolor="#399de558"] ;
11060 -> 11061 ;
11062 [label="number_of_reviews <= 4.25\ngini = 0.4\nsamples = 80\nvalue = [38, 97]\nclass = Available", fillcolor="#399de59b"] ;
11061 -> 11062 ;
11063 [label="(...)", fillcolor="#C0C0C0"] ;
11062 -> 11063 ;
11064 [label="(...)", fillcolor="#C0C0C0"] ;
11062 -> 11064 ;
11101 [label="weekday <= 0.5\ngini = 0.49\nsamples = 508\nvalue = [329, 464]\nclass = Available", fillcolor="#399de54a"] ;
11061 -> 11101 ;
11102 [label="(...)", fillcolor="#C0C0C0"] ;
11101 -> 11102 ;
11209 [label="(...)", fillcolor="#C0C0C0"] ;
11101 -> 11209 ;
11370 [label="number_of_reviews <= 4.5\ngini = 0.5\nsamples = 727\nvalue = [549, 607]\nclass = Available", fillcolor="#399de518"] ;
11060 -> 11370 ;
11371 [label="bedrooms <= 0.5\ngini = 0.42\nsamples = 237\nvalue = [111, 255]\nclass = Available", fillcolor="#399de590"] ;
11370 -> 11371 ;
11372 [label="(...)", fillcolor="#C0C0C0"] ;
11371 -> 11372 ;
11393 [label="(...)", fillcolor="#C0C0C0"] ;
11371 -> 11393 ;
11498 [label="number_of_reviews <= 5.49\ngini = 0.49\nsamples = 490\nvalue = [438, 352]\nclass = Not Available", fillcolor="#e5813932"] ;
11370 -> 11498 ;
11499 [label="(...)", fillcolor="#C0C0C0"] ;
11498 -> 11499 ;
11768 [label="(...)", fillcolor="#C0C0C0"] ;
11498 -> 11768 ;
11781 [label="price <= 4.66\ngini = 0.49\nsamples = 855\nvalue = [732, 589]\nclass = Not Available", fillcolor="#e5813932"] ;
4209 -> 11781 ;
11782 [label="price <= 4.55\ngini = 0.5\nsamples = 704\nvalue = [556, 538]\nclass = Not Available", fillcolor="#e5813908"] ;
11781 -> 11782 ;
11783 [label="price <= 4.5\ngini = 0.48\nsamples = 355\nvalue = [336, 214]\nclass = Not Available", fillcolor="#e581395d"] ;
11782 -> 11783 ;
11784 [label="number_of_reviews <= 2.19\ngini = 0.5\nsamples = 250\nvalue = [190, 201]\nclass = Available", fillcolor="#399de50e"] ;
11783 -> 11784 ;
11785 [label="weekday <= 2.0\ngini = 0.22\nsamples = 19\nvalue = [27, 4]\nclass = Not Available", fillcolor="#e58139d9"] ;
11784 -> 11785 ;
11786 [label="(...)", fillcolor="#C0C0C0"] ;
11785 -> 11786 ;
11787 [label="(...)", fillcolor="#C0C0C0"] ;
11785 -> 11787 ;
11792 [label="price <= 4.45\ngini = 0.5\nsamples = 231\nvalue = [163, 197]\nclass = Available", fillcolor="#399de52c"] ;
11784 -> 11792 ;
11793 [label="(...)", fillcolor="#C0C0C0"] ;
11792 -> 11793 ;
11862 [label="(...)", fillcolor="#C0C0C0"] ;
11792 -> 11862 ;
11885 [label="number_of_reviews <= 2.44\ngini = 0.15\nsamples = 105\nvalue = [146, 13]\nclass = Not Available", fillcolor="#e58139e8"] ;
11783 -> 11885 ;
11886 [label="weekday <= 5.5\ngini = 0.4\nsamples = 21\nvalue = [21, 8]\nclass = Not Available", fillcolor="#e581399e"] ;
11885 -> 11886 ;
11887 [label="(...)", fillcolor="#C0C0C0"] ;
11886 -> 11887 ;
11896 [label="(...)", fillcolor="#C0C0C0"] ;
11886 -> 11896 ;
11897 [label="price <= 4.54\ngini = 0.07\nsamples = 84\nvalue = [125, 5]\nclass = Not Available", fillcolor="#e58139f5"] ;
11885 -> 11897 ;
11898 [label="(...)", fillcolor="#C0C0C0"] ;
11897 -> 11898 ;
11903 [label="(...)", fillcolor="#C0C0C0"] ;
11897 -> 11903 ;
11912 [label="number_of_reviews <= 4.42\ngini = 0.48\nsamples = 349\nvalue = [220, 324]\nclass = Available", fillcolor="#399de552"] ;
11782 -> 11912 ;
11913 [label="price <= 4.6\ngini = 0.46\nsamples = 318\nvalue = [180, 314]\nclass = Available", fillcolor="#399de56d"] ;
11912 -> 11913 ;
11914 [label="host_is_superhost <= 0.5\ngini = 0.33\nsamples = 127\nvalue = [44, 166]\nclass = Available", fillcolor="#399de5bb"] ;
11913 -> 11914 ;
11915 [label="(...)", fillcolor="#C0C0C0"] ;
11914 -> 11915 ;
11952 [label="(...)", fillcolor="#C0C0C0"] ;
11914 -> 11952 ;
11953 [label="number_of_reviews <= 3.94\ngini = 0.5\nsamples = 191\nvalue = [136, 148]\nclass = Available", fillcolor="#399de515"] ;
11913 -> 11953 ;
11954 [label="(...)", fillcolor="#C0C0C0"] ;
11953 -> 11954 ;
12057 [label="(...)", fillcolor="#C0C0C0"] ;
11953 -> 12057 ;
12064 [label="weekday <= 3.5\ngini = 0.32\nsamples = 31\nvalue = [40, 10]\nclass = Not Available", fillcolor="#e58139bf"] ;
11912 -> 12064 ;
12065 [label="number_of_reviews <= 4.46\ngini = 0.44\nsamples = 12\nvalue = [12, 6]\nclass = Not Available", fillcolor="#e581397f"] ;
12064 -> 12065 ;
12066 [label="(...)", fillcolor="#C0C0C0"] ;
12065 -> 12066 ;
12067 [label="(...)", fillcolor="#C0C0C0"] ;
12065 -> 12067 ;
12068 [label="host_is_superhost <= 0.5\ngini = 0.22\nsamples = 19\nvalue = [28, 4]\nclass = Not Available", fillcolor="#e58139db"] ;
12064 -> 12068 ;
12069 [label="(...)", fillcolor="#C0C0C0"] ;
12068 -> 12069 ;
12072 [label="(...)", fillcolor="#C0C0C0"] ;
12068 -> 12072 ;
12073 [label="number_of_reviews <= 3.27\ngini = 0.35\nsamples = 151\nvalue = [176, 51]\nclass = Not Available", fillcolor="#e58139b5"] ;
11781 -> 12073 ;
12074 [label="price <= 4.69\ngini = 0.43\nsamples = 89\nvalue = [95, 43]\nclass = Not Available", fillcolor="#e581398c"] ;
12073 -> 12074 ;
12075 [label="number_of_reviews <= 2.87\ngini = 0.09\nsamples = 48\nvalue = [77, 4]\nclass = Not Available", fillcolor="#e58139f2"] ;
12074 -> 12075 ;
12076 [label="price <= 4.69\ngini = 0.07\nsamples = 47\nvalue = [77, 3]\nclass = Not Available", fillcolor="#e58139f5"] ;
12075 -> 12076 ;
12077 [label="(...)", fillcolor="#C0C0C0"] ;
12076 -> 12077 ;
12082 [label="(...)", fillcolor="#C0C0C0"] ;
12076 -> 12082 ;
12083 [label="gini = 0.0\nsamples = 1\nvalue = [0, 1]\nclass = Available", fillcolor="#399de5ff"] ;
12075 -> 12083 ;
12084 [label="number_of_reviews <= 2.89\ngini = 0.43\nsamples = 41\nvalue = [18, 39]\nclass = Available", fillcolor="#399de589"] ;
12074 -> 12084 ;
12085 [label="number_of_reviews <= 2.52\ngini = 0.46\nsamples = 19\nvalue = [18, 10]\nclass = Not Available", fillcolor="#e5813971"] ;
12084 -> 12085 ;
12086 [label="(...)", fillcolor="#C0C0C0"] ;
12085 -> 12086 ;
12099 [label="(...)", fillcolor="#C0C0C0"] ;
12085 -> 12099 ;
12100 [label="gini = 0.0\nsamples = 22\nvalue = [0, 29]\nclass = Available", fillcolor="#399de5ff"] ;
12084 -> 12100 ;
12101 [label="bedrooms <= 2.5\ngini = 0.16\nsamples = 62\nvalue = [81, 8]\nclass = Not Available", fillcolor="#e58139e6"] ;
12073 -> 12101 ;
12102 [label="host_is_superhost <= 0.5\ngini = 0.09\nsamples = 40\nvalue = [60, 3]\nclass = Not Available", fillcolor="#e58139f2"] ;
12101 -> 12102 ;
12103 [label="gini = 0.0\nsamples = 12\nvalue = [18, 0]\nclass = Not Available", fillcolor="#e58139ff"] ;
12102 -> 12103 ;
12104 [label="weekday <= 5.5\ngini = 0.12\nsamples = 28\nvalue = [42, 3]\nclass = Not Available", fillcolor="#e58139ed"] ;
12102 -> 12104 ;
12105 [label="(...)", fillcolor="#C0C0C0"] ;
12104 -> 12105 ;
12108 [label="(...)", fillcolor="#C0C0C0"] ;
12104 -> 12108 ;
12111 [label="weekday <= 2.5\ngini = 0.31\nsamples = 22\nvalue = [21, 5]\nclass = Not Available", fillcolor="#e58139c2"] ;
12101 -> 12111 ;
12112 [label="weekday <= 1.5\ngini = 0.46\nsamples = 11\nvalue = [9, 5]\nclass = Not Available", fillcolor="#e5813971"] ;
12111 -> 12112 ;
12113 [label="(...)", fillcolor="#C0C0C0"] ;
12112 -> 12113 ;
12116 [label="(...)", fillcolor="#C0C0C0"] ;
12112 -> 12116 ;
12117 [label="gini = 0.0\nsamples = 11\nvalue = [12, 0]\nclass = Not Available", fillcolor="#e58139ff"] ;
12111 -> 12117 ;
12118 [label="number_of_reviews <= 2.67\ngini = 0.35\nsamples = 471\nvalue = [174, 591]\nclass = Available", fillcolor="#399de5b4"] ;
4208 -> 12118 ;
12119 [label="host_is_superhost <= 0.5\ngini = 0.45\nsamples = 157\nvalue = [88, 166]\nclass = Available", fillcolor="#399de578"] ;
12118 -> 12119 ;
12120 [label="bedrooms <= 0.5\ngini = 0.4\nsamples = 133\nvalue = [61, 159]\nclass = Available", fillcolor="#399de59d"] ;
12119 -> 12120 ;
12121 [label="weekday <= 2.5\ngini = 0.5\nsamples = 40\nvalue = [44, 38]\nclass = Not Available", fillcolor="#e5813923"] ;
12120 -> 12121 ;
12122 [label="weekday <= 0.5\ngini = 0.44\nsamples = 14\nvalue = [18, 9]\nclass = Not Available", fillcolor="#e581397f"] ;
12121 -> 12122 ;
12123 [label="number_of_reviews <= 2.56\ngini = 0.5\nsamples = 5\nvalue = [5, 6]\nclass = Available", fillcolor="#399de52a"] ;
12122 -> 12123 ;
12124 [label="(...)", fillcolor="#C0C0C0"] ;
12123 -> 12124 ;
12125 [label="(...)", fillcolor="#C0C0C0"] ;
12123 -> 12125 ;
12126 [label="weekday <= 1.5\ngini = 0.3\nsamples = 9\nvalue = [13, 3]\nclass = Not Available", fillcolor="#e58139c4"] ;
12122 -> 12126 ;
12127 [label="(...)", fillcolor="#C0C0C0"] ;
12126 -> 12127 ;
12130 [label="(...)", fillcolor="#C0C0C0"] ;
12126 -> 12130 ;
12133 [label="weekday <= 3.5\ngini = 0.5\nsamples = 26\nvalue = [26, 29]\nclass = Available", fillcolor="#399de51a"] ;
12121 -> 12133 ;
12134 [label="number_of_reviews <= 2.56\ngini = 0.46\nsamples = 5\nvalue = [4, 7]\nclass = Available", fillcolor="#399de56d"] ;
12133 -> 12134 ;
12135 [label="(...)", fillcolor="#C0C0C0"] ;
12134 -> 12135 ;
12136 [label="(...)", fillcolor="#C0C0C0"] ;
12134 -> 12136 ;
12137 [label="number_of_reviews <= 2.56\ngini = 0.5\nsamples = 21\nvalue = [22, 22]\nclass = Not Available", fillcolor="#e5813900"] ;
12133 -> 12137 ;
12138 [label="(...)", fillcolor="#C0C0C0"] ;
12137 -> 12138 ;
12143 [label="(...)", fillcolor="#C0C0C0"] ;
12137 -> 12143 ;
12148 [label="bedrooms <= 1.5\ngini = 0.22\nsamples = 93\nvalue = [17, 121]\nclass = Available", fillcolor="#399de5db"] ;
12120 -> 12148 ;
12149 [label="weekday <= 3.5\ngini = 0.12\nsamples = 73\nvalue = [7, 102]\nclass = Available", fillcolor="#399de5ee"] ;
12148 -> 12149 ;
12150 [label="weekday <= 2.5\ngini = 0.08\nsamples = 47\nvalue = [3, 68]\nclass = Available", fillcolor="#399de5f4"] ;
12149 -> 12150 ;
12151 [label="(...)", fillcolor="#C0C0C0"] ;
12150 -> 12151 ;
12164 [label="(...)", fillcolor="#C0C0C0"] ;
12150 -> 12164 ;
12165 [label="number_of_reviews <= 2.12\ngini = 0.19\nsamples = 26\nvalue = [4, 34]\nclass = Available", fillcolor="#399de5e1"] ;
12149 -> 12165 ;
12166 [label="(...)", fillcolor="#C0C0C0"] ;
12165 -> 12166 ;
12171 [label="(...)", fillcolor="#C0C0C0"] ;
12165 -> 12171 ;
12172 [label="weekday <= 5.5\ngini = 0.45\nsamples = 20\nvalue = [10, 19]\nclass = Available", fillcolor="#399de579"] ;
12148 -> 12172 ;
12173 [label="weekday <= 2.0\ngini = 0.39\nsamples = 17\nvalue = [6, 17]\nclass = Available", fillcolor="#399de5a5"] ;
12172 -> 12173 ;
12174 [label="(...)", fillcolor="#C0C0C0"] ;
12173 -> 12174 ;
12177 [label="(...)", fillcolor="#C0C0C0"] ;
12173 -> 12177 ;
12180 [label="gini = 0.44\nsamples = 3\nvalue = [4, 2]\nclass = Not Available", fillcolor="#e581397f"] ;
12172 -> 12180 ;
12181 [label="number_of_reviews <= 2.25\ngini = 0.33\nsamples = 24\nvalue = [27, 7]\nclass = Not Available", fillcolor="#e58139bd"] ;
12119 -> 12181 ;
12182 [label="gini = 0.0\nsamples = 5\nvalue = [0, 5]\nclass = Available", fillcolor="#399de5ff"] ;
12181 -> 12182 ;
12183 [label="weekday <= 5.5\ngini = 0.13\nsamples = 19\nvalue = [27, 2]\nclass = Not Available", fillcolor="#e58139ec"] ;
12181 -> 12183 ;
12184 [label="gini = 0.0\nsamples = 16\nvalue = [24, 0]\nclass = Not Available", fillcolor="#e58139ff"] ;
12183 -> 12184 ;
12185 [label="number_of_reviews <= 2.43\ngini = 0.48\nsamples = 3\nvalue = [3, 2]\nclass = Not Available", fillcolor="#e5813955"] ;
12183 -> 12185 ;
12186 [label="gini = 0.0\nsamples = 2\nvalue = [3, 0]\nclass = Not Available", fillcolor="#e58139ff"] ;
12185 -> 12186 ;
12187 [label="gini = 0.0\nsamples = 1\nvalue = [0, 2]\nclass = Available", fillcolor="#399de5ff"] ;
12185 -> 12187 ;
12188 [label="host_is_superhost <= 0.5\ngini = 0.28\nsamples = 314\nvalue = [86, 425]\nclass = Available", fillcolor="#399de5cb"] ;
12118 -> 12188 ;
12189 [label="number_of_reviews <= 3.49\ngini = 0.17\nsamples = 150\nvalue = [23, 223]\nclass = Available", fillcolor="#399de5e5"] ;
12188 -> 12189 ;
12190 [label="number_of_reviews <= 3.36\ngini = 0.29\nsamples = 76\nvalue = [22, 102]\nclass = Available", fillcolor="#399de5c8"] ;
12189 -> 12190 ;
12191 [label="number_of_reviews <= 2.86\ngini = 0.08\nsamples = 58\nvalue = [4, 89]\nclass = Available", fillcolor="#399de5f4"] ;
12190 -> 12191 ;
12192 [label="gini = 0.0\nsamples = 25\nvalue = [0, 40]\nclass = Available", fillcolor="#399de5ff"] ;
12191 -> 12192 ;
12193 [label="weekday <= 5.5\ngini = 0.14\nsamples = 33\nvalue = [4, 49]\nclass = Available", fillcolor="#399de5ea"] ;
12191 -> 12193 ;
12194 [label="(...)", fillcolor="#C0C0C0"] ;
12193 -> 12194 ;
12203 [label="(...)", fillcolor="#C0C0C0"] ;
12193 -> 12203 ;
12206 [label="weekday <= 3.5\ngini = 0.49\nsamples = 18\nvalue = [18, 13]\nclass = Not Available", fillcolor="#e5813947"] ;
12190 -> 12206 ;
12207 [label="weekday <= 0.5\ngini = 0.28\nsamples = 10\nvalue = [15, 3]\nclass = Not Available", fillcolor="#e58139cc"] ;
12206 -> 12207 ;
12208 [label="(...)", fillcolor="#C0C0C0"] ;
12207 -> 12208 ;
12209 [label="(...)", fillcolor="#C0C0C0"] ;
12207 -> 12209 ;
12212 [label="weekday <= 5.5\ngini = 0.36\nsamples = 8\nvalue = [3, 10]\nclass = Available", fillcolor="#399de5b3"] ;
12206 -> 12212 ;
12213 [label="(...)", fillcolor="#C0C0C0"] ;
12212 -> 12213 ;
12214 [label="(...)", fillcolor="#C0C0C0"] ;
12212 -> 12214 ;
12215 [label="bedrooms <= 1.5\ngini = 0.02\nsamples = 74\nvalue = [1, 121]\nclass = Available", fillcolor="#399de5fd"] ;
12189 -> 12215 ;
12216 [label="number_of_reviews <= 3.98\ngini = 0.02\nsamples = 67\nvalue = [1, 112]\nclass = Available", fillcolor="#399de5fd"] ;
12215 -> 12216 ;
12217 [label="weekday <= 1.5\ngini = 0.04\nsamples = 30\nvalue = [1, 50]\nclass = Available", fillcolor="#399de5fa"] ;
12216 -> 12217 ;
12218 [label="(...)", fillcolor="#C0C0C0"] ;
12217 -> 12218 ;
12223 [label="(...)", fillcolor="#C0C0C0"] ;
12217 -> 12223 ;
12224 [label="gini = 0.0\nsamples = 37\nvalue = [0, 62]\nclass = Available", fillcolor="#399de5ff"] ;
12216 -> 12224 ;
12225 [label="gini = 0.0\nsamples = 7\nvalue = [0, 9]\nclass = Available", fillcolor="#399de5ff"] ;
12215 -> 12225 ;
12226 [label="number_of_reviews <= 4.19\ngini = 0.36\nsamples = 164\nvalue = [63, 202]\nclass = Available", fillcolor="#399de5af"] ;
12188 -> 12226 ;
12227 [label="bedrooms <= 1.5\ngini = 0.4\nsamples = 142\nvalue = [63, 168]\nclass = Available", fillcolor="#399de59f"] ;
12226 -> 12227 ;
12228 [label="weekday <= 5.5\ngini = 0.32\nsamples = 117\nvalue = [39, 154]\nclass = Available", fillcolor="#399de5be"] ;
12227 -> 12228 ;
12229 [label="bedrooms <= 0.5\ngini = 0.3\nsamples = 105\nvalue = [31, 140]\nclass = Available", fillcolor="#399de5c7"] ;
12228 -> 12229 ;
12230 [label="(...)", fillcolor="#C0C0C0"] ;
12229 -> 12230 ;
12231 [label="(...)", fillcolor="#C0C0C0"] ;
12229 -> 12231 ;
12268 [label="number_of_reviews <= 3.16\ngini = 0.46\nsamples = 12\nvalue = [8, 14]\nclass = Available", fillcolor="#399de56d"] ;
12228 -> 12268 ;
12269 [label="(...)", fillcolor="#C0C0C0"] ;
12268 -> 12269 ;
12270 [label="(...)", fillcolor="#C0C0C0"] ;
12268 -> 12270 ;
12275 [label="number_of_reviews <= 4.13\ngini = 0.47\nsamples = 25\nvalue = [24, 14]\nclass = Not Available", fillcolor="#e581396a"] ;
12227 -> 12275 ;
12276 [label="gini = 0.0\nsamples = 6\nvalue = [0, 12]\nclass = Available", fillcolor="#399de5ff"] ;
12275 -> 12276 ;
12277 [label="weekday <= 0.5\ngini = 0.14\nsamples = 19\nvalue = [24, 2]\nclass = Not Available", fillcolor="#e58139ea"] ;
12275 -> 12277 ;
12278 [label="(...)", fillcolor="#C0C0C0"] ;
12277 -> 12278 ;
12279 [label="(...)", fillcolor="#C0C0C0"] ;
12277 -> 12279 ;
12286 [label="gini = 0.0\nsamples = 22\nvalue = [0, 34]\nclass = Available", fillcolor="#399de5ff"] ;
12226 -> 12286 ;
12287 [label="bedrooms <= 2.5\ngini = 0.09\nsamples = 2052\nvalue = [3126, 151]\nclass = Not Available", fillcolor="#e58139f3"] ;
4207 -> 12287 ;
12288 [label="bedrooms <= 0.5\ngini = 0.1\nsamples = 1815\nvalue = [2736, 151]\nclass = Not Available", fillcolor="#e58139f1"] ;
12287 -> 12288 ;
12289 [label="number_of_reviews <= 2.12\ngini = 0.03\nsamples = 371\nvalue = [574, 9]\nclass = Not Available", fillcolor="#e58139fb"] ;
12288 -> 12289 ;
12290 [label="price <= 4.72\ngini = 0.5\nsamples = 8\nvalue = [6, 6]\nclass = Not Available", fillcolor="#e5813900"] ;
12289 -> 12290 ;
12291 [label="gini = 0.0\nsamples = 4\nvalue = [6, 0]\nclass = Not Available", fillcolor="#e58139ff"] ;
12290 -> 12291 ;
12292 [label="gini = 0.0\nsamples = 4\nvalue = [0, 6]\nclass = Available", fillcolor="#399de5ff"] ;
12290 -> 12292 ;
12293 [label="price <= 4.71\ngini = 0.01\nsamples = 363\nvalue = [568, 3]\nclass = Not Available", fillcolor="#e58139fe"] ;
12289 -> 12293 ;
12294 [label="gini = 0.0\nsamples = 1\nvalue = [0, 1]\nclass = Available", fillcolor="#399de5ff"] ;
12293 -> 12294 ;
12295 [label="number_of_reviews <= 3.42\ngini = 0.01\nsamples = 362\nvalue = [568, 2]\nclass = Not Available", fillcolor="#e58139fe"] ;
12293 -> 12295 ;
12296 [label="gini = 0.0\nsamples = 281\nvalue = [449, 0]\nclass = Not Available", fillcolor="#e58139ff"] ;
12295 -> 12296 ;
12297 [label="host_is_superhost <= 0.5\ngini = 0.03\nsamples = 81\nvalue = [119, 2]\nclass = Not Available", fillcolor="#e58139fb"] ;
12295 -> 12297 ;
12298 [label="weekday <= 4.5\ngini = 0.02\nsamples = 55\nvalue = [79, 1]\nclass = Not Available", fillcolor="#e58139fc"] ;
12297 -> 12298 ;
12299 [label="(...)", fillcolor="#C0C0C0"] ;
12298 -> 12299 ;
12300 [label="(...)", fillcolor="#C0C0C0"] ;
12298 -> 12300 ;
12305 [label="price <= 4.73\ngini = 0.05\nsamples = 26\nvalue = [40, 1]\nclass = Not Available", fillcolor="#e58139f9"] ;
12297 -> 12305 ;
12306 [label="(...)", fillcolor="#C0C0C0"] ;
12305 -> 12306 ;
12307 [label="(...)", fillcolor="#C0C0C0"] ;
12305 -> 12307 ;
12308 [label="host_is_superhost <= 0.5\ngini = 0.12\nsamples = 1444\nvalue = [2162, 142]\nclass = Not Available", fillcolor="#e58139ee"] ;
12288 -> 12308 ;
12309 [label="number_of_reviews <= 4.51\ngini = 0.09\nsamples = 853\nvalue = [1298, 62]\nclass = Not Available", fillcolor="#e58139f3"] ;
12308 -> 12309 ;
12310 [label="number_of_reviews <= 4.02\ngini = 0.06\nsamples = 842\nvalue = [1295, 45]\nclass = Not Available", fillcolor="#e58139f6"] ;
12309 -> 12310 ;
12311 [label="number_of_reviews <= 2.6\ngini = 0.06\nsamples = 763\nvalue = [1179, 35]\nclass = Not Available", fillcolor="#e58139f7"] ;
12310 -> 12311 ;
12312 [label="number_of_reviews <= 2.53\ngini = 0.1\nsamples = 332\nvalue = [503, 27]\nclass = Not Available", fillcolor="#e58139f1"] ;
12311 -> 12312 ;
12313 [label="(...)", fillcolor="#C0C0C0"] ;
12312 -> 12313 ;
12338 [label="(...)", fillcolor="#C0C0C0"] ;
12312 -> 12338 ;
12349 [label="weekday <= 5.5\ngini = 0.02\nsamples = 431\nvalue = [676, 8]\nclass = Not Available", fillcolor="#e58139fc"] ;
12311 -> 12349 ;
12350 [label="(...)", fillcolor="#C0C0C0"] ;
12349 -> 12350 ;
12369 [label="(...)", fillcolor="#C0C0C0"] ;
12349 -> 12369 ;
12378 [label="bedrooms <= 1.5\ngini = 0.15\nsamples = 79\nvalue = [116, 10]\nclass = Not Available", fillcolor="#e58139e9"] ;
12310 -> 12378 ;
12379 [label="weekday <= 2.5\ngini = 0.22\nsamples = 52\nvalue = [70, 10]\nclass = Not Available", fillcolor="#e58139db"] ;
12378 -> 12379 ;
12380 [label="(...)", fillcolor="#C0C0C0"] ;
12379 -> 12380 ;
12385 [label="(...)", fillcolor="#C0C0C0"] ;
12379 -> 12385 ;
12390 [label="gini = 0.0\nsamples = 27\nvalue = [46, 0]\nclass = Not Available", fillcolor="#e58139ff"] ;
12378 -> 12390 ;
12391 [label="weekday <= 4.5\ngini = 0.26\nsamples = 11\nvalue = [3, 17]\nclass = Available", fillcolor="#399de5d2"] ;
12309 -> 12391 ;
12392 [label="gini = 0.0\nsamples = 9\nvalue = [0, 15]\nclass = Available", fillcolor="#399de5ff"] ;
12391 -> 12392 ;
12393 [label="price <= 4.74\ngini = 0.48\nsamples = 2\nvalue = [3, 2]\nclass = Not Available", fillcolor="#e5813955"] ;
12391 -> 12393 ;
12394 [label="gini = 0.0\nsamples = 1\nvalue = [0, 2]\nclass = Available", fillcolor="#399de5ff"] ;
12393 -> 12394 ;
12395 [label="gini = 0.0\nsamples = 1\nvalue = [3, 0]\nclass = Not Available", fillcolor="#e58139ff"] ;
12393 -> 12395 ;
12396 [label="number_of_reviews <= 4.78\ngini = 0.16\nsamples = 591\nvalue = [864, 80]\nclass = Not Available", fillcolor="#e58139e7"] ;
12308 -> 12396 ;
12397 [label="number_of_reviews <= 4.27\ngini = 0.09\nsamples = 566\nvalue = [857, 41]\nclass = Not Available", fillcolor="#e58139f3"] ;
12396 -> 12397 ;
12398 [label="price <= 4.72\ngini = 0.03\nsamples = 481\nvalue = [742, 13]\nclass = Not Available", fillcolor="#e58139fb"] ;
12397 -> 12398 ;
12399 [label="number_of_reviews <= 3.37\ngini = 0.15\nsamples = 84\nvalue = [117, 10]\nclass = Not Available", fillcolor="#e58139e9"] ;
12398 -> 12399 ;
12400 [label="(...)", fillcolor="#C0C0C0"] ;
12399 -> 12400 ;
12403 [label="(...)", fillcolor="#C0C0C0"] ;
12399 -> 12403 ;
12416 [label="price <= 4.73\ngini = 0.01\nsamples = 397\nvalue = [625, 3]\nclass = Not Available", fillcolor="#e58139fe"] ;
12398 -> 12416 ;
12417 [label="(...)", fillcolor="#C0C0C0"] ;
12416 -> 12417 ;
12418 [label="(...)", fillcolor="#C0C0C0"] ;
12416 -> 12418 ;
12425 [label="price <= 4.72\ngini = 0.31\nsamples = 85\nvalue = [115, 28]\nclass = Not Available", fillcolor="#e58139c1"] ;
12397 -> 12425 ;
12426 [label="gini = 0.0\nsamples = 12\nvalue = [0, 25]\nclass = Available", fillcolor="#399de5ff"] ;
12425 -> 12426 ;
12427 [label="price <= 4.73\ngini = 0.05\nsamples = 73\nvalue = [115, 3]\nclass = Not Available", fillcolor="#e58139f8"] ;
12425 -> 12427 ;
12428 [label="(...)", fillcolor="#C0C0C0"] ;
12427 -> 12428 ;
12429 [label="(...)", fillcolor="#C0C0C0"] ;
12427 -> 12429 ;
12432 [label="weekday <= 0.5\ngini = 0.26\nsamples = 25\nvalue = [7, 39]\nclass = Available", fillcolor="#399de5d1"] ;
12396 -> 12432 ;
12433 [label="number_of_reviews <= 4.9\ngini = 0.47\nsamples = 4\nvalue = [3, 5]\nclass = Available", fillcolor="#399de566"] ;
12432 -> 12433 ;
12434 [label="gini = 0.0\nsamples = 2\nvalue = [0, 5]\nclass = Available", fillcolor="#399de5ff"] ;
12433 -> 12434 ;
12435 [label="gini = 0.0\nsamples = 2\nvalue = [3, 0]\nclass = Not Available", fillcolor="#e58139ff"] ;
12433 -> 12435 ;
12436 [label="number_of_reviews <= 4.9\ngini = 0.19\nsamples = 21\nvalue = [4, 34]\nclass = Available", fillcolor="#399de5e1"] ;
12432 -> 12436 ;
12437 [label="gini = 0.0\nsamples = 15\nvalue = [0, 27]\nclass = Available", fillcolor="#399de5ff"] ;
12436 -> 12437 ;
12438 [label="number_of_reviews <= 4.92\ngini = 0.46\nsamples = 6\nvalue = [4, 7]\nclass = Available", fillcolor="#399de56d"] ;
12436 -> 12438 ;
12439 [label="(...)", fillcolor="#C0C0C0"] ;
12438 -> 12439 ;
12440 [label="(...)", fillcolor="#C0C0C0"] ;
12438 -> 12440 ;
12441 [label="gini = 0.0\nsamples = 237\nvalue = [390, 0]\nclass = Not Available", fillcolor="#e58139ff"] ;
12287 -> 12441 ;
12442 [label="host_is_superhost <= 0.5\ngini = 0.49\nsamples = 23687\nvalue = [16108, 21301]\nclass = Available", fillcolor="#399de53e"] ;
0 -> 12442 [labeldistance=2.5, labelangle=-45, headlabel="False"] ;
12443 [label="number_of_reviews <= 2.14\ngini = 0.49\nsamples = 18533\nvalue = [12331, 16963]\nclass = Available", fillcolor="#399de546"] ;
12442 -> 12443 ;
12444 [label="bedrooms <= 2.5\ngini = 0.5\nsamples = 11504\nvalue = [8380, 9808]\nclass = Available", fillcolor="#399de525"] ;
12443 -> 12444 ;
12445 [label="bedrooms <= 1.5\ngini = 0.49\nsamples = 8452\nvalue = [5590, 7784]\nclass = Available", fillcolor="#399de548"] ;
12444 -> 12445 ;
12446 [label="weekday <= 3.5\ngini = 0.48\nsamples = 4907\nvalue = [3029, 4746]\nclass = Available", fillcolor="#399de55c"] ;
12445 -> 12446 ;
12447 [label="price <= 5.59\ngini = 0.49\nsamples = 2785\nvalue = [1820, 2570]\nclass = Available", fillcolor="#399de54a"] ;
12446 -> 12447 ;
12448 [label="price <= 5.33\ngini = 0.49\nsamples = 2704\nvalue = [1805, 2458]\nclass = Available", fillcolor="#399de544"] ;
12447 -> 12448 ;
12449 [label="number_of_reviews <= 1.87\ngini = 0.49\nsamples = 2454\nvalue = [1611, 2254]\nclass = Available", fillcolor="#399de549"] ;
12448 -> 12449 ;
12450 [label="number_of_reviews <= 0.35\ngini = 0.48\nsamples = 2180\nvalue = [1394, 2020]\nclass = Available", fillcolor="#399de54f"] ;
12449 -> 12450 ;
12451 [label="(...)", fillcolor="#C0C0C0"] ;
12450 -> 12451 ;
12836 [label="(...)", fillcolor="#C0C0C0"] ;
12450 -> 12836 ;
13289 [label="price <= 4.91\ngini = 0.5\nsamples = 274\nvalue = [217, 234]\nclass = Available", fillcolor="#399de513"] ;
12449 -> 13289 ;
13290 [label="(...)", fillcolor="#C0C0C0"] ;
13289 -> 13290 ;
13355 [label="(...)", fillcolor="#C0C0C0"] ;
13289 -> 13355 ;
13436 [label="number_of_reviews <= -3.45\ngini = 0.5\nsamples = 250\nvalue = [194, 204]\nclass = Available", fillcolor="#399de50c"] ;
12448 -> 13436 ;
13437 [label="bedrooms <= 0.5\ngini = 0.42\nsamples = 94\nvalue = [48, 111]\nclass = Available", fillcolor="#399de591"] ;
13436 -> 13437 ;
13438 [label="(...)", fillcolor="#C0C0C0"] ;
13437 -> 13438 ;
13457 [label="(...)", fillcolor="#C0C0C0"] ;
13437 -> 13457 ;
13492 [label="number_of_reviews <= 0.35\ngini = 0.48\nsamples = 156\nvalue = [146, 93]\nclass = Not Available", fillcolor="#e581395d"] ;
13436 -> 13492 ;
13493 [label="(...)", fillcolor="#C0C0C0"] ;
13492 -> 13493 ;
13510 [label="(...)", fillcolor="#C0C0C0"] ;
13492 -> 13510 ;
13589 [label="price <= 5.74\ngini = 0.21\nsamples = 81\nvalue = [15, 112]\nclass = Available", fillcolor="#399de5dd"] ;
12447 -> 13589 ;
13590 [label="number_of_reviews <= -3.45\ngini = 0.36\nsamples = 44\nvalue = [15, 48]\nclass = Available", fillcolor="#399de5af"] ;
13589 -> 13590 ;
13591 [label="gini = 0.0\nsamples = 22\nvalue = [0, 32]\nclass = Available", fillcolor="#399de5ff"] ;
13590 -> 13591 ;
13592 [label="price <= 5.7\ngini = 0.5\nsamples = 22\nvalue = [15, 16]\nclass = Available", fillcolor="#399de510"] ;
13590 -> 13592 ;
13593 [label="(...)", fillcolor="#C0C0C0"] ;
13592 -> 13593 ;
13594 [label="(...)", fillcolor="#C0C0C0"] ;
13592 -> 13594 ;
13597 [label="gini = 0.0\nsamples = 37\nvalue = [0, 64]\nclass = Available", fillcolor="#399de5ff"] ;
13589 -> 13597 ;
13598 [label="price <= 5.71\ngini = 0.46\nsamples = 2122\nvalue = [1209, 2176]\nclass = Available", fillcolor="#399de571"] ;
12446 -> 13598 ;
13599 [label="price <= 4.86\ngini = 0.46\nsamples = 2084\nvalue = [1209, 2112]\nclass = Available", fillcolor="#399de56d"] ;
13598 -> 13599 ;
13600 [label="number_of_reviews <= 2.01\ngini = 0.43\nsamples = 607\nvalue = [297, 671]\nclass = Available", fillcolor="#399de58e"] ;
13599 -> 13600 ;
13601 [label="price <= 4.83\ngini = 0.41\nsamples = 586\nvalue = [274, 659]\nclass = Available", fillcolor="#399de595"] ;
13600 -> 13601 ;
13602 [label="(...)", fillcolor="#C0C0C0"] ;
13601 -> 13602 ;
13751 [label="(...)", fillcolor="#C0C0C0"] ;
13601 -> 13751 ;
13798 [label="weekday <= 4.5\ngini = 0.45\nsamples = 21\nvalue = [23, 12]\nclass = Not Available", fillcolor="#e581397a"] ;
13600 -> 13798 ;
13799 [label="(...)", fillcolor="#C0C0C0"] ;
13798 -> 13799 ;
13804 [label="(...)", fillcolor="#C0C0C0"] ;
13798 -> 13804 ;
13813 [label="weekday <= 5.5\ngini = 0.47\nsamples = 1477\nvalue = [912, 1441]\nclass = Available", fillcolor="#399de55e"] ;
13599 -> 13813 ;
13814 [label="price <= 5.16\ngini = 0.47\nsamples = 1015\nvalue = [616, 1002]\nclass = Available", fillcolor="#399de562"] ;
13813 -> 13814 ;
13815 [label="(...)", fillcolor="#C0C0C0"] ;
13814 -> 13815 ;
14042 [label="(...)", fillcolor="#C0C0C0"] ;
13814 -> 14042 ;
14241 [label="price <= 4.92\ngini = 0.48\nsamples = 462\nvalue = [296, 439]\nclass = Available", fillcolor="#399de553"] ;
13813 -> 14241 ;
14242 [label="(...)", fillcolor="#C0C0C0"] ;
14241 -> 14242 ;
14269 [label="(...)", fillcolor="#C0C0C0"] ;
14241 -> 14269 ;
14450 [label="gini = 0.0\nsamples = 38\nvalue = [0, 64]\nclass = Available", fillcolor="#399de5ff"] ;
13598 -> 14450 ;
14451 [label="number_of_reviews <= 1.7\ngini = 0.5\nsamples = 3545\nvalue = [2561, 3038]\nclass = Available", fillcolor="#399de528"] ;
12445 -> 14451 ;
14452 [label="price <= 5.38\ngini = 0.5\nsamples = 2974\nvalue = [2170, 2507]\nclass = Available", fillcolor="#399de522"] ;
14451 -> 14452 ;
14453 [label="number_of_reviews <= -3.45\ngini = 0.5\nsamples = 2041\nvalue = [1574, 1609]\nclass = Available", fillcolor="#399de506"] ;
14452 -> 14453 ;
14454 [label="weekday <= 5.5\ngini = 0.5\nsamples = 598\nvalue = [419, 497]\nclass = Available", fillcolor="#399de528"] ;
14453 -> 14454 ;
14455 [label="price <= 5.3\ngini = 0.5\nsamples = 516\nvalue = [372, 408]\nclass = Available", fillcolor="#399de517"] ;
14454 -> 14455 ;
14456 [label="(...)", fillcolor="#C0C0C0"] ;
14455 -> 14456 ;
14605 [label="(...)", fillcolor="#C0C0C0"] ;
14455 -> 14605 ;
14626 [label="price <= 5.12\ngini = 0.45\nsamples = 82\nvalue = [47, 89]\nclass = Available", fillcolor="#399de578"] ;
14454 -> 14626 ;
14627 [label="(...)", fillcolor="#C0C0C0"] ;
14626 -> 14627 ;
14648 [label="(...)", fillcolor="#C0C0C0"] ;
14626 -> 14648 ;
14653 [label="number_of_reviews <= 0.35\ngini = 0.5\nsamples = 1443\nvalue = [1155, 1112]\nclass = Not Available", fillcolor="#e5813909"] ;
14453 -> 14653 ;
14654 [label="weekday <= 1.5\ngini = 0.49\nsamples = 432\nvalue = [388, 308]\nclass = Not Available", fillcolor="#e5813935"] ;
14653 -> 14654 ;
14655 [label="(...)", fillcolor="#C0C0C0"] ;
14654 -> 14655 ;
14714 [label="(...)", fillcolor="#C0C0C0"] ;
14654 -> 14714 ;
14837 [label="number_of_reviews <= 1.5\ngini = 0.5\nsamples = 1011\nvalue = [767, 804]\nclass = Available", fillcolor="#399de50c"] ;
14653 -> 14837 ;
14838 [label="(...)", fillcolor="#C0C0C0"] ;
14837 -> 14838 ;
15207 [label="(...)", fillcolor="#C0C0C0"] ;
14837 -> 15207 ;
15358 [label="weekday <= 3.5\ngini = 0.48\nsamples = 933\nvalue = [596, 898]\nclass = Available", fillcolor="#399de556"] ;
14452 -> 15358 ;
15359 [label="price <= 5.52\ngini = 0.48\nsamples = 537\nvalue = [353, 501]\nclass = Available", fillcolor="#399de54b"] ;
15358 -> 15359 ;
15360 [label="number_of_reviews <= 0.9\ngini = 0.34\nsamples = 156\nvalue = [52, 187]\nclass = Available", fillcolor="#399de5b8"] ;
15359 -> 15360 ;
15361 [label="(...)", fillcolor="#C0C0C0"] ;
15360 -> 15361 ;
15384 [label="(...)", fillcolor="#C0C0C0"] ;
15360 -> 15384 ;
15407 [label="number_of_reviews <= 0.35\ngini = 0.5\nsamples = 381\nvalue = [301, 314]\nclass = Available", fillcolor="#399de50b"] ;
15359 -> 15407 ;
15408 [label="(...)", fillcolor="#C0C0C0"] ;
15407 -> 15408 ;
15487 [label="(...)", fillcolor="#C0C0C0"] ;
15407 -> 15487 ;
15554 [label="number_of_reviews <= -3.45\ngini = 0.47\nsamples = 396\nvalue = [243, 397]\nclass = Available", fillcolor="#399de563"] ;
15358 -> 15554 ;
15555 [label="weekday <= 4.5\ngini = 0.5\nsamples = 148\nvalue = [107, 128]\nclass = Available", fillcolor="#399de52a"] ;
15554 -> 15555 ;
15556 [label="(...)", fillcolor="#C0C0C0"] ;
15555 -> 15556 ;
15575 [label="(...)", fillcolor="#C0C0C0"] ;
15555 -> 15575 ;
15610 [label="number_of_reviews <= 1.24\ngini = 0.45\nsamples = 248\nvalue = [136, 269]\nclass = Available", fillcolor="#399de57e"] ;
15554 -> 15610 ;
15611 [label="(...)", fillcolor="#C0C0C0"] ;
15610 -> 15611 ;
15694 [label="(...)", fillcolor="#C0C0C0"] ;
15610 -> 15694 ;
15751 [label="price <= 5.31\ngini = 0.49\nsamples = 571\nvalue = [391, 531]\nclass = Available", fillcolor="#399de543"] ;
14451 -> 15751 ;
15752 [label="price <= 5.26\ngini = 0.5\nsamples = 389\nvalue = [312, 317]\nclass = Available", fillcolor="#399de504"] ;
15751 -> 15752 ;
15753 [label="price <= 5.19\ngini = 0.49\nsamples = 318\nvalue = [229, 291]\nclass = Available", fillcolor="#399de536"] ;
15752 -> 15753 ;
15754 [label="number_of_reviews <= 2.01\ngini = 0.5\nsamples = 275\nvalue = [229, 222]\nclass = Not Available", fillcolor="#e5813908"] ;
15753 -> 15754 ;
15755 [label="(...)", fillcolor="#C0C0C0"] ;
15754 -> 15755 ;
15840 [label="(...)", fillcolor="#C0C0C0"] ;
15754 -> 15840 ;
15885 [label="gini = 0.0\nsamples = 43\nvalue = [0, 69]\nclass = Available", fillcolor="#399de5ff"] ;
15753 -> 15885 ;
15886 [label="number_of_reviews <= 1.87\ngini = 0.36\nsamples = 71\nvalue = [83, 26]\nclass = Not Available", fillcolor="#e58139af"] ;
15752 -> 15886 ;
15887 [label="gini = 0.0\nsamples = 2\nvalue = [0, 3]\nclass = Available", fillcolor="#399de5ff"] ;
15886 -> 15887 ;
15888 [label="price <= 5.28\ngini = 0.34\nsamples = 69\nvalue = [83, 23]\nclass = Not Available", fillcolor="#e58139b8"] ;
15886 -> 15888 ;
15889 [label="(...)", fillcolor="#C0C0C0"] ;
15888 -> 15889 ;
15890 [label="(...)", fillcolor="#C0C0C0"] ;
15888 -> 15890 ;
15919 [label="price <= 5.42\ngini = 0.39\nsamples = 182\nvalue = [79, 214]\nclass = Available", fillcolor="#399de5a1"] ;
15751 -> 15919 ;
15920 [label="weekday <= 2.5\ngini = 0.08\nsamples = 29\nvalue = [2, 48]\nclass = Available", fillcolor="#399de5f4"] ;
15919 -> 15920 ;
15921 [label="weekday <= 1.5\ngini = 0.2\nsamples = 11\nvalue = [2, 16]\nclass = Available", fillcolor="#399de5df"] ;
15920 -> 15921 ;
15922 [label="(...)", fillcolor="#C0C0C0"] ;
15921 -> 15922 ;
15923 [label="(...)", fillcolor="#C0C0C0"] ;
15921 -> 15923 ;
15924 [label="gini = 0.0\nsamples = 18\nvalue = [0, 32]\nclass = Available", fillcolor="#399de5ff"] ;
15920 -> 15924 ;
15925 [label="price <= 5.44\ngini = 0.43\nsamples = 153\nvalue = [77, 166]\nclass = Available", fillcolor="#399de589"] ;
15919 -> 15925 ;
15926 [label="gini = 0.0\nsamples = 10\nvalue = [18, 0]\nclass = Not Available", fillcolor="#e58139ff"] ;
15925 -> 15926 ;
15927 [label="weekday <= 2.5\ngini = 0.39\nsamples = 143\nvalue = [59, 166]\nclass = Available", fillcolor="#399de5a4"] ;
15925 -> 15927 ;
15928 [label="(...)", fillcolor="#C0C0C0"] ;
15927 -> 15928 ;
15963 [label="(...)", fillcolor="#C0C0C0"] ;
15927 -> 15963 ;
16000 [label="number_of_reviews <= 0.35\ngini = 0.49\nsamples = 3052\nvalue = [2790, 2024]\nclass = Not Available", fillcolor="#e5813946"] ;
12444 -> 16000 ;
16001 [label="number_of_reviews <= -3.45\ngini = 0.47\nsamples = 1427\nvalue = [1400, 861]\nclass = Not Available", fillcolor="#e5813962"] ;
16000 -> 16001 ;
16002 [label="weekday <= 1.5\ngini = 0.48\nsamples = 797\nvalue = [743, 508]\nclass = Not Available", fillcolor="#e5813951"] ;
16001 -> 16002 ;
16003 [label="bedrooms <= 4.5\ngini = 0.46\nsamples = 240\nvalue = [241, 139]\nclass = Not Available", fillcolor="#e581396c"] ;
16002 -> 16003 ;
16004 [label="bedrooms <= 3.5\ngini = 0.47\nsamples = 216\nvalue = [214, 130]\nclass = Not Available", fillcolor="#e5813964"] ;
16003 -> 16004 ;
16005 [label="weekday <= 0.5\ngini = 0.46\nsamples = 139\nvalue = [138, 79]\nclass = Not Available", fillcolor="#e581396d"] ;
16004 -> 16005 ;
16006 [label="(...)", fillcolor="#C0C0C0"] ;
16005 -> 16006 ;
16039 [label="(...)", fillcolor="#C0C0C0"] ;
16005 -> 16039 ;
16074 [label="price <= 6.16\ngini = 0.48\nsamples = 77\nvalue = [76, 51]\nclass = Not Available", fillcolor="#e5813954"] ;
16004 -> 16074 ;
16075 [label="(...)", fillcolor="#C0C0C0"] ;
16074 -> 16075 ;
16114 [label="(...)", fillcolor="#C0C0C0"] ;
16074 -> 16114 ;
16115 [label="price <= 6.24\ngini = 0.38\nsamples = 24\nvalue = [27, 9]\nclass = Not Available", fillcolor="#e58139aa"] ;
16003 -> 16115 ;
16116 [label="price <= 6.1\ngini = 0.22\nsamples = 21\nvalue = [27, 4]\nclass = Not Available", fillcolor="#e58139d9"] ;
16115 -> 16116 ;
16117 [label="(...)", fillcolor="#C0C0C0"] ;
16116 -> 16117 ;
16124 [label="(...)", fillcolor="#C0C0C0"] ;
16116 -> 16124 ;
16125 [label="gini = 0.0\nsamples = 3\nvalue = [0, 5]\nclass = Available", fillcolor="#399de5ff"] ;
16115 -> 16125 ;
16126 [label="weekday <= 2.5\ngini = 0.49\nsamples = 557\nvalue = [502, 369]\nclass = Not Available", fillcolor="#e5813944"] ;
16002 -> 16126 ;
16127 [label="price <= 5.7\ngini = 0.5\nsamples = 113\nvalue = [85, 97]\nclass = Available", fillcolor="#399de520"] ;
16126 -> 16127 ;
16128 [label="price <= 5.46\ngini = 0.46\nsamples = 55\nvalue = [32, 56]\nclass = Available", fillcolor="#399de56d"] ;
16127 -> 16128 ;
16129 [label="(...)", fillcolor="#C0C0C0"] ;
16128 -> 16129 ;
16148 [label="(...)", fillcolor="#C0C0C0"] ;
16128 -> 16148 ;
16153 [label="price <= 5.76\ngini = 0.49\nsamples = 58\nvalue = [53, 41]\nclass = Not Available", fillcolor="#e581393a"] ;
16127 -> 16153 ;
16154 [label="(...)", fillcolor="#C0C0C0"] ;
16153 -> 16154 ;
16159 [label="(...)", fillcolor="#C0C0C0"] ;
16153 -> 16159 ;
16188 [label="price <= 5.89\ngini = 0.48\nsamples = 444\nvalue = [417, 272]\nclass = Not Available", fillcolor="#e5813959"] ;
16126 -> 16188 ;
16189 [label="bedrooms <= 4.5\ngini = 0.43\nsamples = 341\nvalue = [357, 167]\nclass = Not Available", fillcolor="#e5813988"] ;
16188 -> 16189 ;
16190 [label="(...)", fillcolor="#C0C0C0"] ;
16189 -> 16190 ;
16349 [label="(...)", fillcolor="#C0C0C0"] ;
16189 -> 16349 ;
16356 [label="price <= 6.07\ngini = 0.46\nsamples = 103\nvalue = [60, 105]\nclass = Available", fillcolor="#399de56d"] ;
16188 -> 16356 ;
16357 [label="(...)", fillcolor="#C0C0C0"] ;
16356 -> 16357 ;
16380 [label="(...)", fillcolor="#C0C0C0"] ;
16356 -> 16380 ;
16405 [label="bedrooms <= 4.5\ngini = 0.45\nsamples = 630\nvalue = [657, 353]\nclass = Not Available", fillcolor="#e5813976"] ;
16001 -> 16405 ;
16406 [label="bedrooms <= 3.5\ngini = 0.44\nsamples = 585\nvalue = [627, 314]\nclass = Not Available", fillcolor="#e581397f"] ;
16405 -> 16406 ;
16407 [label="price <= 5.1\ngini = 0.46\nsamples = 487\nvalue = [507, 283]\nclass = Not Available", fillcolor="#e5813971"] ;
16406 -> 16407 ;
16408 [label="gini = 0.0\nsamples = 23\nvalue = [0, 38]\nclass = Available", fillcolor="#399de5ff"] ;
16407 -> 16408 ;
16409 [label="price <= 5.94\ngini = 0.44\nsamples = 464\nvalue = [507, 245]\nclass = Not Available", fillcolor="#e5813984"] ;
16407 -> 16409 ;
16410 [label="(...)", fillcolor="#C0C0C0"] ;
16409 -> 16410 ;
16589 [label="(...)", fillcolor="#C0C0C0"] ;
16409 -> 16589 ;
16608 [label="price <= 5.51\ngini = 0.33\nsamples = 98\nvalue = [120, 31]\nclass = Not Available", fillcolor="#e58139bd"] ;
16406 -> 16608 ;
16609 [label="price <= 5.5\ngini = 0.47\nsamples = 42\nvalue = [38, 24]\nclass = Not Available", fillcolor="#e581395e"] ;
16608 -> 16609 ;
16610 [label="(...)", fillcolor="#C0C0C0"] ;
16609 -> 16610 ;
16627 [label="(...)", fillcolor="#C0C0C0"] ;
16609 -> 16627 ;
16628 [label="weekday <= 2.5\ngini = 0.14\nsamples = 56\nvalue = [82, 7]\nclass = Not Available", fillcolor="#e58139e9"] ;
16608 -> 16628 ;
16629 [label="(...)", fillcolor="#C0C0C0"] ;
16628 -> 16629 ;
16644 [label="(...)", fillcolor="#C0C0C0"] ;
16628 -> 16644 ;
16649 [label="price <= 6.11\ngini = 0.49\nsamples = 45\nvalue = [30, 39]\nclass = Available", fillcolor="#399de53b"] ;
16405 -> 16649 ;
16650 [label="gini = 0.0\nsamples = 26\nvalue = [0, 37]\nclass = Available", fillcolor="#399de5ff"] ;
16649 -> 16650 ;
16651 [label="weekday <= 2.5\ngini = 0.12\nsamples = 19\nvalue = [30, 2]\nclass = Not Available", fillcolor="#e58139ee"] ;
16649 -> 16651 ;
16652 [label="gini = 0.0\nsamples = 9\nvalue = [17, 0]\nclass = Not Available", fillcolor="#e58139ff"] ;
16651 -> 16652 ;
16653 [label="weekday <= 3.5\ngini = 0.23\nsamples = 10\nvalue = [13, 2]\nclass = Not Available", fillcolor="#e58139d8"] ;
16651 -> 16653 ;
16654 [label="(...)", fillcolor="#C0C0C0"] ;
16653 -> 16654 ;
16655 [label="(...)", fillcolor="#C0C0C0"] ;
16653 -> 16655 ;
16656 [label="price <= 6.4\ngini = 0.5\nsamples = 1625\nvalue = [1390, 1163]\nclass = Not Available", fillcolor="#e581392a"] ;
16000 -> 16656 ;
16657 [label="price <= 5.27\ngini = 0.49\nsamples = 1547\nvalue = [1384, 1038]\nclass = Not Available", fillcolor="#e5813940"] ;
16656 -> 16657 ;
16658 [label="number_of_reviews <= 1.24\ngini = 0.42\nsamples = 369\nvalue = [410, 171]\nclass = Not Available", fillcolor="#e5813995"] ;
16657 -> 16658 ;
16659 [label="price <= 5.16\ngini = 0.37\nsamples = 166\nvalue = [191, 62]\nclass = Not Available", fillcolor="#e58139ac"] ;
16658 -> 16659 ;
16660 [label="price <= 4.98\ngini = 0.49\nsamples = 53\nvalue = [51, 37]\nclass = Not Available", fillcolor="#e5813946"] ;
16659 -> 16660 ;
16661 [label="(...)", fillcolor="#C0C0C0"] ;
16660 -> 16661 ;
16676 [label="(...)", fillcolor="#C0C0C0"] ;
16660 -> 16676 ;
16691 [label="price <= 5.21\ngini = 0.26\nsamples = 113\nvalue = [140, 25]\nclass = Not Available", fillcolor="#e58139d1"] ;
16659 -> 16691 ;
16692 [label="(...)", fillcolor="#C0C0C0"] ;
16691 -> 16692 ;
16719 [label="(...)", fillcolor="#C0C0C0"] ;
16691 -> 16719 ;
16732 [label="number_of_reviews <= 1.5\ngini = 0.44\nsamples = 203\nvalue = [219, 109]\nclass = Not Available", fillcolor="#e5813980"] ;
16658 -> 16732 ;
16733 [label="price <= 4.93\ngini = 0.49\nsamples = 43\nvalue = [29, 41]\nclass = Available", fillcolor="#399de54b"] ;
16732 -> 16733 ;
16734 [label="(...)", fillcolor="#C0C0C0"] ;
16733 -> 16734 ;
16741 [label="(...)", fillcolor="#C0C0C0"] ;
16733 -> 16741 ;
16760 [label="price <= 4.96\ngini = 0.39\nsamples = 160\nvalue = [190, 68]\nclass = Not Available", fillcolor="#e58139a4"] ;
16732 -> 16760 ;
16761 [label="(...)", fillcolor="#C0C0C0"] ;
16760 -> 16761 ;
16762 [label="(...)", fillcolor="#C0C0C0"] ;
16760 -> 16762 ;
16813 [label="weekday <= 3.5\ngini = 0.5\nsamples = 1178\nvalue = [974, 867]\nclass = Not Available", fillcolor="#e581391c"] ;
16657 -> 16813 ;
16814 [label="bedrooms <= 3.5\ngini = 0.5\nsamples = 655\nvalue = [558, 475]\nclass = Not Available", fillcolor="#e5813926"] ;
16813 -> 16814 ;
16815 [label="weekday <= 1.5\ngini = 0.5\nsamples = 498\nvalue = [400, 374]\nclass = Not Available", fillcolor="#e5813911"] ;
16814 -> 16815 ;
16816 [label="(...)", fillcolor="#C0C0C0"] ;
16815 -> 16816 ;
16979 [label="(...)", fillcolor="#C0C0C0"] ;
16815 -> 16979 ;
17152 [label="number_of_reviews <= 0.9\ngini = 0.48\nsamples = 157\nvalue = [158, 101]\nclass = Not Available", fillcolor="#e581395c"] ;
16814 -> 17152 ;
17153 [label="(...)", fillcolor="#C0C0C0"] ;
17152 -> 17153 ;
17182 [label="(...)", fillcolor="#C0C0C0"] ;
17152 -> 17182 ;
17253 [label="number_of_reviews <= 1.5\ngini = 0.5\nsamples = 523\nvalue = [416, 392]\nclass = Not Available", fillcolor="#e581390f"] ;
16813 -> 17253 ;
17254 [label="bedrooms <= 4.5\ngini = 0.5\nsamples = 348\nvalue = [296, 245]\nclass = Not Available", fillcolor="#e581392c"] ;
17253 -> 17254 ;
17255 [label="(...)", fillcolor="#C0C0C0"] ;
17254 -> 17255 ;
17458 [label="(...)", fillcolor="#C0C0C0"] ;
17254 -> 17458 ;
17469 [label="price <= 5.49\ngini = 0.49\nsamples = 175\nvalue = [120, 147]\nclass = Available", fillcolor="#399de52f"] ;
17253 -> 17469 ;
17470 [label="(...)", fillcolor="#C0C0C0"] ;
17469 -> 17470 ;
17485 [label="(...)", fillcolor="#C0C0C0"] ;
17469 -> 17485 ;
17572 [label="number_of_reviews <= 1.7\ngini = 0.09\nsamples = 78\nvalue = [6, 125]\nclass = Available", fillcolor="#399de5f3"] ;
16656 -> 17572 ;
17573 [label="weekday <= 3.5\ngini = 0.04\nsamples = 56\nvalue = [2, 89]\nclass = Available", fillcolor="#399de5f9"] ;
17572 -> 17573 ;
17574 [label="gini = 0.0\nsamples = 35\nvalue = [0, 57]\nclass = Available", fillcolor="#399de5ff"] ;
17573 -> 17574 ;
17575 [label="price <= 6.83\ngini = 0.11\nsamples = 21\nvalue = [2, 32]\nclass = Available", fillcolor="#399de5ef"] ;
17573 -> 17575 ;
17576 [label="price <= 6.76\ngini = 0.23\nsamples = 10\nvalue = [2, 13]\nclass = Available", fillcolor="#399de5d8"] ;
17575 -> 17576 ;
17577 [label="(...)", fillcolor="#C0C0C0"] ;
17576 -> 17577 ;
17584 [label="(...)", fillcolor="#C0C0C0"] ;
17576 -> 17584 ;
17585 [label="gini = 0.0\nsamples = 11\nvalue = [0, 19]\nclass = Available", fillcolor="#399de5ff"] ;
17575 -> 17585 ;
17586 [label="price <= 6.46\ngini = 0.18\nsamples = 22\nvalue = [4, 36]\nclass = Available", fillcolor="#399de5e3"] ;
17572 -> 17586 ;
17587 [label="gini = 0.0\nsamples = 13\nvalue = [0, 21]\nclass = Available", fillcolor="#399de5ff"] ;
17586 -> 17587 ;
17588 [label="weekday <= 5.0\ngini = 0.33\nsamples = 9\nvalue = [4, 15]\nclass = Available", fillcolor="#399de5bb"] ;
17586 -> 17588 ;
17589 [label="weekday <= 3.5\ngini = 0.36\nsamples = 8\nvalue = [4, 13]\nclass = Available", fillcolor="#399de5b1"] ;
17588 -> 17589 ;
17590 [label="(...)", fillcolor="#C0C0C0"] ;
17589 -> 17590 ;
17595 [label="(...)", fillcolor="#C0C0C0"] ;
17589 -> 17595 ;
17596 [label="gini = 0.0\nsamples = 1\nvalue = [0, 2]\nclass = Available", fillcolor="#399de5ff"] ;
17588 -> 17596 ;
17597 [label="number_of_reviews <= 3.2\ngini = 0.46\nsamples = 7029\nvalue = [3951, 7155]\nclass = Available", fillcolor="#399de572"] ;
12443 -> 17597 ;
17598 [label="weekday <= 4.5\ngini = 0.45\nsamples = 4051\nvalue = [2173, 4240]\nclass = Available", fillcolor="#399de57c"] ;
17597 -> 17598 ;
17599 [label="weekday <= 3.5\ngini = 0.45\nsamples = 2869\nvalue = [1583, 2940]\nclass = Available", fillcolor="#399de576"] ;
17598 -> 17599 ;
17600 [label="price <= 4.79\ngini = 0.45\nsamples = 2269\nvalue = [1227, 2348]\nclass = Available", fillcolor="#399de57a"] ;
17599 -> 17600 ;
17601 [label="price <= 4.79\ngini = 0.12\nsamples = 185\nvalue = [19, 267]\nclass = Available", fillcolor="#399de5ed"] ;
17600 -> 17601 ;
17602 [label="price <= 4.78\ngini = 0.16\nsamples = 142\nvalue = [19, 196]\nclass = Available", fillcolor="#399de5e6"] ;
17601 -> 17602 ;
17603 [label="number_of_reviews <= 2.8\ngini = 0.12\nsamples = 138\nvalue = [13, 196]\nclass = Available", fillcolor="#399de5ee"] ;
17602 -> 17603 ;
17604 [label="(...)", fillcolor="#C0C0C0"] ;
17603 -> 17604 ;
17621 [label="(...)", fillcolor="#C0C0C0"] ;
17603 -> 17621 ;
17638 [label="gini = 0.0\nsamples = 4\nvalue = [6, 0]\nclass = Not Available", fillcolor="#e58139ff"] ;
17602 -> 17638 ;
17639 [label="gini = 0.0\nsamples = 43\nvalue = [0, 71]\nclass = Available", fillcolor="#399de5ff"] ;
17601 -> 17639 ;
17640 [label="price <= 4.82\ngini = 0.46\nsamples = 2084\nvalue = [1208, 2081]\nclass = Available", fillcolor="#399de56b"] ;
17600 -> 17640 ;
17641 [label="bedrooms <= 1.5\ngini = 0.36\nsamples = 63\nvalue = [79, 24]\nclass = Not Available", fillcolor="#e58139b2"] ;
17640 -> 17641 ;
17642 [label="price <= 4.8\ngini = 0.49\nsamples = 29\nvalue = [28, 21]\nclass = Not Available", fillcolor="#e5813940"] ;
17641 -> 17642 ;
17643 [label="(...)", fillcolor="#C0C0C0"] ;
17642 -> 17643 ;
17644 [label="(...)", fillcolor="#C0C0C0"] ;
17642 -> 17644 ;
17651 [label="number_of_reviews <= 2.25\ngini = 0.1\nsamples = 34\nvalue = [51, 3]\nclass = Not Available", fillcolor="#e58139f0"] ;
17641 -> 17651 ;
17652 [label="(...)", fillcolor="#C0C0C0"] ;
17651 -> 17652 ;
17655 [label="(...)", fillcolor="#C0C0C0"] ;
17651 -> 17655 ;
17656 [label="price <= 5.41\ngini = 0.46\nsamples = 2021\nvalue = [1129, 2057]\nclass = Available", fillcolor="#399de573"] ;
17640 -> 17656 ;
17657 [label="bedrooms <= 2.5\ngini = 0.48\nsamples = 1425\nvalue = [879, 1345]\nclass = Available", fillcolor="#399de558"] ;
17656 -> 17657 ;
17658 [label="(...)", fillcolor="#C0C0C0"] ;
17657 -> 17658 ;
18311 [label="(...)", fillcolor="#C0C0C0"] ;
17657 -> 18311 ;
18358 [label="number_of_reviews <= 3.07\ngini = 0.38\nsamples = 596\nvalue = [250, 712]\nclass = Available", fillcolor="#399de5a5"] ;
17656 -> 18358 ;
18359 [label="(...)", fillcolor="#C0C0C0"] ;
18358 -> 18359 ;
18628 [label="(...)", fillcolor="#C0C0C0"] ;
18358 -> 18628 ;
18645 [label="price <= 5.41\ngini = 0.47\nsamples = 600\nvalue = [356, 592]\nclass = Available", fillcolor="#399de566"] ;
17599 -> 18645 ;
18646 [label="bedrooms <= 1.5\ngini = 0.49\nsamples = 423\nvalue = [281, 389]\nclass = Available", fillcolor="#399de547"] ;
18645 -> 18646 ;
18647 [label="price <= 4.79\ngini = 0.45\nsamples = 280\nvalue = [154, 302]\nclass = Available", fillcolor="#399de57d"] ;
18646 -> 18647 ;
18648 [label="number_of_reviews <= 2.99\ngini = 0.14\nsamples = 32\nvalue = [4, 49]\nclass = Available", fillcolor="#399de5ea"] ;
18647 -> 18648 ;
18649 [label="(...)", fillcolor="#C0C0C0"] ;
18648 -> 18649 ;
18654 [label="(...)", fillcolor="#C0C0C0"] ;
18648 -> 18654 ;
18655 [label="number_of_reviews <= 3.11\ngini = 0.47\nsamples = 248\nvalue = [150, 253]\nclass = Available", fillcolor="#399de568"] ;
18647 -> 18655 ;
18656 [label="(...)", fillcolor="#C0C0C0"] ;
18655 -> 18656 ;
18813 [label="(...)", fillcolor="#C0C0C0"] ;
18655 -> 18813 ;
18816 [label="number_of_reviews <= 2.25\ngini = 0.48\nsamples = 143\nvalue = [127, 87]\nclass = Not Available", fillcolor="#e5813950"] ;
18646 -> 18816 ;
18817 [label="bedrooms <= 2.5\ngini = 0.06\nsamples = 21\nvalue = [33, 1]\nclass = Not Available", fillcolor="#e58139f7"] ;
18816 -> 18817 ;
18818 [label="(...)", fillcolor="#C0C0C0"] ;
18817 -> 18818 ;
18819 [label="(...)", fillcolor="#C0C0C0"] ;
18817 -> 18819 ;
18824 [label="bedrooms <= 2.5\ngini = 0.5\nsamples = 122\nvalue = [94, 86]\nclass = Not Available", fillcolor="#e5813916"] ;
18816 -> 18824 ;
18825 [label="(...)", fillcolor="#C0C0C0"] ;
18824 -> 18825 ;
18886 [label="(...)", fillcolor="#C0C0C0"] ;
18824 -> 18886 ;
18897 [label="bedrooms <= 3.5\ngini = 0.39\nsamples = 177\nvalue = [75, 203]\nclass = Available", fillcolor="#399de5a1"] ;
18645 -> 18897 ;
18898 [label="number_of_reviews <= 2.86\ngini = 0.31\nsamples = 150\nvalue = [45, 186]\nclass = Available", fillcolor="#399de5c1"] ;
18897 -> 18898 ;
18899 [label="price <= 5.44\ngini = 0.37\nsamples = 117\nvalue = [44, 133]\nclass = Available", fillcolor="#399de5ab"] ;
18898 -> 18899 ;
18900 [label="(...)", fillcolor="#C0C0C0"] ;
18899 -> 18900 ;
18905 [label="(...)", fillcolor="#C0C0C0"] ;
18899 -> 18905 ;
18952 [label="price <= 5.76\ngini = 0.04\nsamples = 33\nvalue = [1, 53]\nclass = Available", fillcolor="#399de5fa"] ;
18898 -> 18952 ;
18953 [label="(...)", fillcolor="#C0C0C0"] ;
18952 -> 18953 ;
18954 [label="(...)", fillcolor="#C0C0C0"] ;
18952 -> 18954 ;
18961 [label="price <= 6.21\ngini = 0.46\nsamples = 27\nvalue = [30, 17]\nclass = Not Available", fillcolor="#e581396e"] ;
18897 -> 18961 ;
18962 [label="number_of_reviews <= 2.39\ngini = 0.26\nsamples = 17\nvalue = [27, 5]\nclass = Not Available", fillcolor="#e58139d0"] ;
18961 -> 18962 ;
18963 [label="(...)", fillcolor="#C0C0C0"] ;
18962 -> 18963 ;
18966 [label="(...)", fillcolor="#C0C0C0"] ;
18962 -> 18966 ;
18975 [label="number_of_reviews <= 2.97\ngini = 0.32\nsamples = 10\nvalue = [3, 12]\nclass = Available", fillcolor="#399de5bf"] ;
18961 -> 18975 ;
18976 [label="(...)", fillcolor="#C0C0C0"] ;
18975 -> 18976 ;
18983 [label="(...)", fillcolor="#C0C0C0"] ;
18975 -> 18983 ;
18986 [label="weekday <= 5.5\ngini = 0.43\nsamples = 1182\nvalue = [590, 1300]\nclass = Available", fillcolor="#399de58b"] ;
17598 -> 18986 ;
18987 [label="number_of_reviews <= 2.67\ngini = 0.43\nsamples = 632\nvalue = [319, 688]\nclass = Available", fillcolor="#399de589"] ;
18986 -> 18987 ;
18988 [label="bedrooms <= 3.5\ngini = 0.47\nsamples = 370\nvalue = [220, 366]\nclass = Available", fillcolor="#399de566"] ;
18987 -> 18988 ;
18989 [label="price <= 4.81\ngini = 0.46\nsamples = 354\nvalue = [208, 358]\nclass = Available", fillcolor="#399de56b"] ;
18988 -> 18989 ;
18990 [label="number_of_reviews <= 2.25\ngini = 0.12\nsamples = 39\nvalue = [4, 58]\nclass = Available", fillcolor="#399de5ed"] ;
18989 -> 18990 ;
18991 [label="(...)", fillcolor="#C0C0C0"] ;
18990 -> 18991 ;
18996 [label="(...)", fillcolor="#C0C0C0"] ;
18990 -> 18996 ;
19001 [label="bedrooms <= 0.5\ngini = 0.48\nsamples = 315\nvalue = [204, 300]\nclass = Available", fillcolor="#399de552"] ;
18989 -> 19001 ;
19002 [label="(...)", fillcolor="#C0C0C0"] ;
19001 -> 19002 ;
19017 [label="(...)", fillcolor="#C0C0C0"] ;
19001 -> 19017 ;
19192 [label="bedrooms <= 4.5\ngini = 0.48\nsamples = 16\nvalue = [12, 8]\nclass = Not Available", fillcolor="#e5813955"] ;
18988 -> 19192 ;
19193 [label="price <= 6.1\ngini = 0.5\nsamples = 9\nvalue = [7, 6]\nclass = Not Available", fillcolor="#e5813924"] ;
19192 -> 19193 ;
19194 [label="(...)", fillcolor="#C0C0C0"] ;
19193 -> 19194 ;
19197 [label="(...)", fillcolor="#C0C0C0"] ;
19193 -> 19197 ;
19198 [label="price <= 6.1\ngini = 0.41\nsamples = 7\nvalue = [5, 2]\nclass = Not Available", fillcolor="#e5813999"] ;
19192 -> 19198 ;
19199 [label="(...)", fillcolor="#C0C0C0"] ;
19198 -> 19199 ;
19200 [label="(...)", fillcolor="#C0C0C0"] ;
19198 -> 19200 ;
19201 [label="number_of_reviews <= 3.11\ngini = 0.36\nsamples = 262\nvalue = [99, 322]\nclass = Available", fillcolor="#399de5b1"] ;
18987 -> 19201 ;
19202 [label="number_of_reviews <= 2.97\ngini = 0.38\nsamples = 236\nvalue = [96, 281]\nclass = Available", fillcolor="#399de5a8"] ;
19201 -> 19202 ;
19203 [label="price <= 5.6\ngini = 0.35\nsamples = 151\nvalue = [52, 180]\nclass = Available", fillcolor="#399de5b5"] ;
19202 -> 19203 ;
19204 [label="(...)", fillcolor="#C0C0C0"] ;
19203 -> 19204 ;
19291 [label="(...)", fillcolor="#C0C0C0"] ;
19203 -> 19291 ;
19292 [label="price <= 5.41\ngini = 0.42\nsamples = 85\nvalue = [44, 101]\nclass = Available", fillcolor="#399de590"] ;
19202 -> 19292 ;
19293 [label="(...)", fillcolor="#C0C0C0"] ;
19292 -> 19293 ;
19328 [label="(...)", fillcolor="#C0C0C0"] ;
19292 -> 19328 ;
19343 [label="price <= 5.33\ngini = 0.13\nsamples = 26\nvalue = [3, 41]\nclass = Available", fillcolor="#399de5ec"] ;
19201 -> 19343 ;
19344 [label="gini = 0.0\nsamples = 12\nvalue = [0, 23]\nclass = Available", fillcolor="#399de5ff"] ;
19343 -> 19344 ;
19345 [label="number_of_reviews <= 3.16\ngini = 0.24\nsamples = 14\nvalue = [3, 18]\nclass = Available", fillcolor="#399de5d4"] ;
19343 -> 19345 ;
19346 [label="(...)", fillcolor="#C0C0C0"] ;
19345 -> 19346 ;
19349 [label="(...)", fillcolor="#C0C0C0"] ;
19345 -> 19349 ;
19352 [label="price <= 4.78\ngini = 0.43\nsamples = 550\nvalue = [271, 612]\nclass = Available", fillcolor="#399de58e"] ;
18986 -> 19352 ;
19353 [label="price <= 4.75\ngini = 0.15\nsamples = 40\nvalue = [5, 55]\nclass = Available", fillcolor="#399de5e8"] ;
19352 -> 19353 ;
19354 [label="gini = 0.0\nsamples = 19\nvalue = [0, 31]\nclass = Available", fillcolor="#399de5ff"] ;
19353 -> 19354 ;
19355 [label="number_of_reviews <= 2.25\ngini = 0.29\nsamples = 21\nvalue = [5, 24]\nclass = Available", fillcolor="#399de5ca"] ;
19353 -> 19355 ;
19356 [label="bedrooms <= 1.0\ngini = 0.32\nsamples = 5\nvalue = [4, 1]\nclass = Not Available", fillcolor="#e58139bf"] ;
19355 -> 19356 ;
19357 [label="(...)", fillcolor="#C0C0C0"] ;
19356 -> 19357 ;
19358 [label="(...)", fillcolor="#C0C0C0"] ;
19356 -> 19358 ;
19359 [label="bedrooms <= 1.5\ngini = 0.08\nsamples = 16\nvalue = [1, 23]\nclass = Available", fillcolor="#399de5f4"] ;
19355 -> 19359 ;
19360 [label="(...)", fillcolor="#C0C0C0"] ;
19359 -> 19360 ;
19363 [label="(...)", fillcolor="#C0C0C0"] ;
19359 -> 19363 ;
19364 [label="price <= 5.15\ngini = 0.44\nsamples = 510\nvalue = [266, 557]\nclass = Available", fillcolor="#399de585"] ;
19352 -> 19364 ;
19365 [label="number_of_reviews <= 3.11\ngini = 0.47\nsamples = 257\nvalue = [160, 258]\nclass = Available", fillcolor="#399de561"] ;
19364 -> 19365 ;
19366 [label="number_of_reviews <= 3.07\ngini = 0.48\nsamples = 245\nvalue = [160, 237]\nclass = Available", fillcolor="#399de553"] ;
19365 -> 19366 ;
19367 [label="(...)", fillcolor="#C0C0C0"] ;
19366 -> 19367 ;
19530 [label="(...)", fillcolor="#C0C0C0"] ;
19366 -> 19530 ;
19539 [label="gini = 0.0\nsamples = 12\nvalue = [0, 21]\nclass = Available", fillcolor="#399de5ff"] ;
19365 -> 19539 ;
19540 [label="price <= 5.17\ngini = 0.39\nsamples = 253\nvalue = [106, 299]\nclass = Available", fillcolor="#399de5a5"] ;
19364 -> 19540 ;
19541 [label="price <= 5.16\ngini = 0.06\nsamples = 21\nvalue = [1, 34]\nclass = Available", fillcolor="#399de5f8"] ;
19540 -> 19541 ;
19542 [label="(...)", fillcolor="#C0C0C0"] ;
19541 -> 19542 ;
19543 [label="(...)", fillcolor="#C0C0C0"] ;
19541 -> 19543 ;
19548 [label="bedrooms <= 4.5\ngini = 0.41\nsamples = 232\nvalue = [105, 265]\nclass = Available", fillcolor="#399de59a"] ;
19540 -> 19548 ;
19549 [label="(...)", fillcolor="#C0C0C0"] ;
19548 -> 19549 ;
19712 [label="(...)", fillcolor="#C0C0C0"] ;
19548 -> 19712 ;
19719 [label="number_of_reviews <= 3.31\ngini = 0.47\nsamples = 2978\nvalue = [1778, 2915]\nclass = Available", fillcolor="#399de563"] ;
17597 -> 19719 ;
19720 [label="bedrooms <= 2.5\ngini = 0.5\nsamples = 347\nvalue = [291, 268]\nclass = Not Available", fillcolor="#e5813914"] ;
19719 -> 19720 ;
19721 [label="price <= 4.9\ngini = 0.5\nsamples = 278\nvalue = [225, 235]\nclass = Available", fillcolor="#399de50b"] ;
19720 -> 19721 ;
19722 [label="price <= 4.81\ngini = 0.3\nsamples = 73\nvalue = [100, 23]\nclass = Not Available", fillcolor="#e58139c4"] ;
19721 -> 19722 ;
19723 [label="gini = 0.0\nsamples = 7\nvalue = [0, 10]\nclass = Available", fillcolor="#399de5ff"] ;
19722 -> 19723 ;
19724 [label="weekday <= 2.5\ngini = 0.2\nsamples = 66\nvalue = [100, 13]\nclass = Not Available", fillcolor="#e58139de"] ;
19722 -> 19724 ;
19725 [label="price <= 4.85\ngini = 0.37\nsamples = 29\nvalue = [40, 13]\nclass = Not Available", fillcolor="#e58139ac"] ;
19724 -> 19725 ;
19726 [label="(...)", fillcolor="#C0C0C0"] ;
19725 -> 19726 ;
19727 [label="(...)", fillcolor="#C0C0C0"] ;
19725 -> 19727 ;
19742 [label="gini = 0.0\nsamples = 37\nvalue = [60, 0]\nclass = Not Available", fillcolor="#e58139ff"] ;
19724 -> 19742 ;
19743 [label="weekday <= 0.5\ngini = 0.47\nsamples = 205\nvalue = [125, 212]\nclass = Available", fillcolor="#399de569"] ;
19721 -> 19743 ;
19744 [label="bedrooms <= 1.5\ngini = 0.37\nsamples = 29\nvalue = [13, 41]\nclass = Available", fillcolor="#399de5ae"] ;
19743 -> 19744 ;
19745 [label="price <= 5.28\ngini = 0.2\nsamples = 9\nvalue = [2, 16]\nclass = Available", fillcolor="#399de5df"] ;
19744 -> 19745 ;
19746 [label="(...)", fillcolor="#C0C0C0"] ;
19745 -> 19746 ;
19749 [label="(...)", fillcolor="#C0C0C0"] ;
19745 -> 19749 ;
19750 [label="price <= 5.65\ngini = 0.42\nsamples = 20\nvalue = [11, 25]\nclass = Available", fillcolor="#399de58f"] ;
19744 -> 19750 ;
19751 [label="(...)", fillcolor="#C0C0C0"] ;
19750 -> 19751 ;
19766 [label="(...)", fillcolor="#C0C0C0"] ;
19750 -> 19766 ;
19767 [label="number_of_reviews <= 3.28\ngini = 0.48\nsamples = 176\nvalue = [112, 171]\nclass = Available", fillcolor="#399de558"] ;
19743 -> 19767 ;
19768 [label="price <= 4.98\ngini = 0.5\nsamples = 109\nvalue = [84, 93]\nclass = Available", fillcolor="#399de519"] ;
19767 -> 19768 ;
19769 [label="(...)", fillcolor="#C0C0C0"] ;
19768 -> 19769 ;
19770 [label="(...)", fillcolor="#C0C0C0"] ;
19768 -> 19770 ;
19841 [label="bedrooms <= 1.5\ngini = 0.39\nsamples = 67\nvalue = [28, 78]\nclass = Available", fillcolor="#399de5a3"] ;
19767 -> 19841 ;
19842 [label="(...)", fillcolor="#C0C0C0"] ;
19841 -> 19842 ;
19843 [label="(...)", fillcolor="#C0C0C0"] ;
19841 -> 19843 ;
19868 [label="weekday <= 4.5\ngini = 0.44\nsamples = 69\nvalue = [66, 33]\nclass = Not Available", fillcolor="#e581397f"] ;
19720 -> 19868 ;
19869 [label="price <= 5.49\ngini = 0.47\nsamples = 51\nvalue = [46, 28]\nclass = Not Available", fillcolor="#e5813964"] ;
19868 -> 19869 ;
19870 [label="price <= 5.25\ngini = 0.4\nsamples = 43\nvalue = [45, 17]\nclass = Not Available", fillcolor="#e581399f"] ;
19869 -> 19870 ;
19871 [label="number_of_reviews <= 3.26\ngini = 0.48\nsamples = 31\nvalue = [25, 17]\nclass = Not Available", fillcolor="#e5813952"] ;
19870 -> 19871 ;
19872 [label="(...)", fillcolor="#C0C0C0"] ;
19871 -> 19872 ;
19881 [label="(...)", fillcolor="#C0C0C0"] ;
19871 -> 19881 ;
19882 [label="gini = 0.0\nsamples = 12\nvalue = [20, 0]\nclass = Not Available", fillcolor="#e58139ff"] ;
19870 -> 19882 ;
19883 [label="price <= 6.12\ngini = 0.15\nsamples = 8\nvalue = [1, 11]\nclass = Available", fillcolor="#399de5e8"] ;
19869 -> 19883 ;
19884 [label="weekday <= 0.5\ngini = 0.32\nsamples = 5\nvalue = [1, 4]\nclass = Available", fillcolor="#399de5bf"] ;
19883 -> 19884 ;
19885 [label="(...)", fillcolor="#C0C0C0"] ;
19884 -> 19885 ;
19888 [label="(...)", fillcolor="#C0C0C0"] ;
19884 -> 19888 ;
19889 [label="gini = 0.0\nsamples = 3\nvalue = [0, 7]\nclass = Available", fillcolor="#399de5ff"] ;
19883 -> 19889 ;
19890 [label="weekday <= 5.5\ngini = 0.32\nsamples = 18\nvalue = [20, 5]\nclass = Not Available", fillcolor="#e58139bf"] ;
19868 -> 19890 ;
19891 [label="gini = 0.0\nsamples = 2\nvalue = [3, 0]\nclass = Not Available", fillcolor="#e58139ff"] ;
19890 -> 19891 ;
19892 [label="price <= 5.28\ngini = 0.35\nsamples = 16\nvalue = [17, 5]\nclass = Not Available", fillcolor="#e58139b4"] ;
19890 -> 19892 ;
19893 [label="price <= 5.25\ngini = 0.26\nsamples = 15\nvalue = [17, 3]\nclass = Not Available", fillcolor="#e58139d2"] ;
19892 -> 19893 ;
19894 [label="(...)", fillcolor="#C0C0C0"] ;
19893 -> 19894 ;
19899 [label="(...)", fillcolor="#C0C0C0"] ;
19893 -> 19899 ;
19900 [label="gini = 0.0\nsamples = 1\nvalue = [0, 2]\nclass = Available", fillcolor="#399de5ff"] ;
19892 -> 19900 ;
19901 [label="number_of_reviews <= 3.48\ngini = 0.46\nsamples = 2631\nvalue = [1487, 2647]\nclass = Available", fillcolor="#399de570"] ;
19719 -> 19901 ;
19902 [label="price <= 4.99\ngini = 0.4\nsamples = 493\nvalue = [206, 542]\nclass = Available", fillcolor="#399de59e"] ;
19901 -> 19902 ;
19903 [label="price <= 4.94\ngini = 0.47\nsamples = 227\nvalue = [124, 204]\nclass = Available", fillcolor="#399de564"] ;
19902 -> 19903 ;
19904 [label="bedrooms <= 0.5\ngini = 0.42\nsamples = 192\nvalue = [84, 194]\nclass = Available", fillcolor="#399de591"] ;
19903 -> 19904 ;
19905 [label="number_of_reviews <= 3.42\ngini = 0.5\nsamples = 57\nvalue = [42, 42]\nclass = Not Available", fillcolor="#e5813900"] ;
19904 -> 19905 ;
19906 [label="(...)", fillcolor="#C0C0C0"] ;
19905 -> 19906 ;
19937 [label="(...)", fillcolor="#C0C0C0"] ;
19905 -> 19937 ;
19940 [label="number_of_reviews <= 3.35\ngini = 0.34\nsamples = 135\nvalue = [42, 152]\nclass = Available", fillcolor="#399de5b9"] ;
19904 -> 19940 ;
19941 [label="(...)", fillcolor="#C0C0C0"] ;
19940 -> 19941 ;
19946 [label="(...)", fillcolor="#C0C0C0"] ;
19940 -> 19946 ;
19987 [label="bedrooms <= 1.5\ngini = 0.32\nsamples = 35\nvalue = [40, 10]\nclass = Not Available", fillcolor="#e58139bf"] ;
19903 -> 19987 ;
19988 [label="gini = 0.0\nsamples = 3\nvalue = [0, 4]\nclass = Available", fillcolor="#399de5ff"] ;
19987 -> 19988 ;
19989 [label="weekday <= 4.5\ngini = 0.23\nsamples = 32\nvalue = [40, 6]\nclass = Not Available", fillcolor="#e58139d9"] ;
19987 -> 19989 ;
19990 [label="(...)", fillcolor="#C0C0C0"] ;
19989 -> 19990 ;
19997 [label="(...)", fillcolor="#C0C0C0"] ;
19989 -> 19997 ;
20006 [label="price <= 5.3\ngini = 0.31\nsamples = 266\nvalue = [82, 338]\nclass = Available", fillcolor="#399de5c1"] ;
19902 -> 20006 ;
20007 [label="bedrooms <= 1.5\ngini = 0.13\nsamples = 105\nvalue = [12, 155]\nclass = Available", fillcolor="#399de5eb"] ;
20006 -> 20007 ;
20008 [label="price <= 5.16\ngini = 0.22\nsamples = 47\nvalue = [9, 64]\nclass = Available", fillcolor="#399de5db"] ;
20007 -> 20008 ;
20009 [label="(...)", fillcolor="#C0C0C0"] ;
20008 -> 20009 ;
20016 [label="(...)", fillcolor="#C0C0C0"] ;
20008 -> 20016 ;
20017 [label="number_of_reviews <= 3.45\ngini = 0.06\nsamples = 58\nvalue = [3, 91]\nclass = Available", fillcolor="#399de5f7"] ;
20007 -> 20017 ;
20018 [label="(...)", fillcolor="#C0C0C0"] ;
20017 -> 20018 ;
20027 [label="(...)", fillcolor="#C0C0C0"] ;
20017 -> 20027 ;
20032 [label="price <= 5.41\ngini = 0.4\nsamples = 161\nvalue = [70, 183]\nclass = Available", fillcolor="#399de59d"] ;
20006 -> 20032 ;
20033 [label="number_of_reviews <= 3.38\ngini = 0.5\nsamples = 40\nvalue = [28, 29]\nclass = Available", fillcolor="#399de509"] ;
20032 -> 20033 ;
20034 [label="(...)", fillcolor="#C0C0C0"] ;
20033 -> 20034 ;
20037 [label="(...)", fillcolor="#C0C0C0"] ;
20033 -> 20037 ;
20040 [label="weekday <= 4.5\ngini = 0.34\nsamples = 121\nvalue = [42, 154]\nclass = Available", fillcolor="#399de5b9"] ;
20032 -> 20040 ;
20041 [label="(...)", fillcolor="#C0C0C0"] ;
20040 -> 20041 ;
20086 [label="(...)", fillcolor="#C0C0C0"] ;
20040 -> 20086 ;
20099 [label="bedrooms <= 1.5\ngini = 0.47\nsamples = 2138\nvalue = [1281, 2105]\nclass = Available", fillcolor="#399de564"] ;
19901 -> 20099 ;
20100 [label="bedrooms <= 0.5\ngini = 0.44\nsamples = 1295\nvalue = [684, 1393]\nclass = Available", fillcolor="#399de582"] ;
20099 -> 20100 ;
20101 [label="weekday <= 2.5\ngini = 0.49\nsamples = 269\nvalue = [175, 240]\nclass = Available", fillcolor="#399de545"] ;
20100 -> 20101 ;
20102 [label="price <= 4.96\ngini = 0.5\nsamples = 116\nvalue = [87, 95]\nclass = Available", fillcolor="#399de515"] ;
20101 -> 20102 ;
20103 [label="(...)", fillcolor="#C0C0C0"] ;
20102 -> 20103 ;
20158 [label="(...)", fillcolor="#C0C0C0"] ;
20102 -> 20158 ;
20169 [label="price <= 4.96\ngini = 0.47\nsamples = 153\nvalue = [88, 145]\nclass = Available", fillcolor="#399de564"] ;
20101 -> 20169 ;
20170 [label="(...)", fillcolor="#C0C0C0"] ;
20169 -> 20170 ;
20213 [label="(...)", fillcolor="#C0C0C0"] ;
20169 -> 20213 ;
20228 [label="weekday <= 5.5\ngini = 0.42\nsamples = 1026\nvalue = [509, 1153]\nclass = Available", fillcolor="#399de58e"] ;
20100 -> 20228 ;
20229 [label="number_of_reviews <= 3.54\ngini = 0.42\nsamples = 865\nvalue = [417, 973]\nclass = Available", fillcolor="#399de592"] ;
20228 -> 20229 ;
20230 [label="(...)", fillcolor="#C0C0C0"] ;
20229 -> 20230 ;
20269 [label="(...)", fillcolor="#C0C0C0"] ;
20229 -> 20269 ;
20678 [label="number_of_reviews <= 3.54\ngini = 0.45\nsamples = 161\nvalue = [92, 180]\nclass = Available", fillcolor="#399de57d"] ;
20228 -> 20678 ;
20679 [label="(...)", fillcolor="#C0C0C0"] ;
20678 -> 20679 ;
20680 [label="(...)", fillcolor="#C0C0C0"] ;
20678 -> 20680 ;
20777 [label="price <= 5.6\ngini = 0.5\nsamples = 843\nvalue = [597, 712]\nclass = Available", fillcolor="#399de529"] ;
20099 -> 20777 ;
20778 [label="price <= 5.57\ngini = 0.5\nsamples = 732\nvalue = [572, 561]\nclass = Not Available", fillcolor="#e5813905"] ;
20777 -> 20778 ;
20779 [label="price <= 5.27\ngini = 0.5\nsamples = 691\nvalue = [509, 561]\nclass = Available", fillcolor="#399de518"] ;
20778 -> 20779 ;
20780 [label="(...)", fillcolor="#C0C0C0"] ;
20779 -> 20780 ;
21019 [label="(...)", fillcolor="#C0C0C0"] ;
20779 -> 21019 ;
21120 [label="gini = 0.0\nsamples = 41\nvalue = [63, 0]\nclass = Not Available", fillcolor="#e58139ff"] ;
20778 -> 21120 ;
21121 [label="number_of_reviews <= 3.78\ngini = 0.24\nsamples = 111\nvalue = [25, 151]\nclass = Available", fillcolor="#399de5d5"] ;
20777 -> 21121 ;
21122 [label="number_of_reviews <= 3.69\ngini = 0.32\nsamples = 75\nvalue = [25, 101]\nclass = Available", fillcolor="#399de5c0"] ;
21121 -> 21122 ;
21123 [label="(...)", fillcolor="#C0C0C0"] ;
21122 -> 21123 ;
21158 [label="(...)", fillcolor="#C0C0C0"] ;
21122 -> 21158 ;
21173 [label="gini = 0.0\nsamples = 36\nvalue = [0, 50]\nclass = Available", fillcolor="#399de5ff"] ;
21121 -> 21173 ;
21174 [label="price <= 5.5\ngini = 0.5\nsamples = 5154\nvalue = [3777, 4338]\nclass = Available", fillcolor="#399de521"] ;
12442 -> 21174 ;
21175 [label="number_of_reviews <= 1.7\ngini = 0.5\nsamples = 3993\nvalue = [3119, 3200]\nclass = Available", fillcolor="#399de506"] ;
21174 -> 21175 ;
21176 [label="bedrooms <= 3.5\ngini = 0.41\nsamples = 588\nvalue = [668, 264]\nclass = Not Available", fillcolor="#e581399a"] ;
21175 -> 21176 ;
21177 [label="bedrooms <= 1.5\ngini = 0.42\nsamples = 556\nvalue = [620, 261]\nclass = Not Available", fillcolor="#e5813994"] ;
21176 -> 21177 ;
21178 [label="price <= 4.95\ngini = 0.37\nsamples = 350\nvalue = [426, 136]\nclass = Not Available", fillcolor="#e58139ae"] ;
21177 -> 21178 ;
21179 [label="number_of_reviews <= 0.9\ngini = 0.22\nsamples = 122\nvalue = [165, 24]\nclass = Not Available", fillcolor="#e58139da"] ;
21178 -> 21179 ;
21180 [label="number_of_reviews <= -3.11\ngini = 0.31\nsamples = 55\nvalue = [68, 16]\nclass = Not Available", fillcolor="#e58139c3"] ;
21179 -> 21180 ;
21181 [label="price <= 4.85\ngini = 0.23\nsamples = 39\nvalue = [53, 8]\nclass = Not Available", fillcolor="#e58139d9"] ;
21180 -> 21181 ;
21182 [label="(...)", fillcolor="#C0C0C0"] ;
21181 -> 21182 ;
21183 [label="(...)", fillcolor="#C0C0C0"] ;
21181 -> 21183 ;
21184 [label="price <= 4.88\ngini = 0.45\nsamples = 16\nvalue = [15, 8]\nclass = Not Available", fillcolor="#e5813977"] ;
21180 -> 21184 ;
21185 [label="(...)", fillcolor="#C0C0C0"] ;
21184 -> 21185 ;
21186 [label="(...)", fillcolor="#C0C0C0"] ;
21184 -> 21186 ;
21187 [label="price <= 4.89\ngini = 0.14\nsamples = 67\nvalue = [97, 8]\nclass = Not Available", fillcolor="#e58139ea"] ;
21179 -> 21187 ;
21188 [label="price <= 4.85\ngini = 0.19\nsamples = 48\nvalue = [69, 8]\nclass = Not Available", fillcolor="#e58139e1"] ;
21187 -> 21188 ;
21189 [label="(...)", fillcolor="#C0C0C0"] ;
21188 -> 21189 ;
21202 [label="(...)", fillcolor="#C0C0C0"] ;
21188 -> 21202 ;
21203 [label="gini = 0.0\nsamples = 19\nvalue = [28, 0]\nclass = Not Available", fillcolor="#e58139ff"] ;
21187 -> 21203 ;
21204 [label="weekday <= 5.5\ngini = 0.42\nsamples = 228\nvalue = [261, 112]\nclass = Not Available", fillcolor="#e5813992"] ;
21178 -> 21204 ;
