digraph Tree {
node [shape=box, style="filled, rounded", color="black", fontname=helvetica] ;
edge [fontname=helvetica] ;
0 [label="spacious <= 0.5\ngini = 0.5\nsamples = 57841\nvalue = [45602, 45831]\nclass = Available", fillcolor="#399de501"] ;
1 [label="cancellation_policy_strict <= 0.5\ngini = 0.5\nsamples = 54469\nvalue = [42566, 43545]\nclass = Available", fillcolor="#399de506"] ;
0 -> 1 [labeldistance=2.5, labelangle=45, headlabel="True"] ;
2 [label="number_of_reviews <= 1.87\ngini = 0.5\nsamples = 34738\nvalue = [27972, 26997]\nclass = Not Available", fillcolor="#e5813909"] ;
1 -> 2 ;
3 [label="west <= 0.5\ngini = 0.49\nsamples = 17389\nvalue = [15698, 11771]\nclass = Not Available", fillcolor="#e5813940"] ;
2 -> 3 ;
4 [label="room_type_Private room <= 0.5\ngini = 0.49\nsamples = 15657\nvalue = [14320, 10348]\nclass = Not Available", fillcolor="#e5813947"] ;
3 -> 4 ;
5 [label="(...)", fillcolor="#C0C0C0"] ;
4 -> 5 ;
4272 [label="(...)", fillcolor="#C0C0C0"] ;
4 -> 4272 ;
5795 [label="room_type_Private room <= 0.5\ngini = 0.5\nsamples = 1732\nvalue = [1378, 1423]\nclass = Available", fillcolor="#399de508"] ;
3 -> 5795 ;
5796 [label="(...)", fillcolor="#C0C0C0"] ;
5795 -> 5796 ;
5959 [label="(...)", fillcolor="#C0C0C0"] ;
5795 -> 5959 ;
6372 [label="fremont <= 0.5\ngini = 0.49\nsamples = 17349\nvalue = [12274, 15226]\nclass = Available", fillcolor="#399de531"] ;
2 -> 6372 ;
6373 [label="room_type_Entire home/apt <= 0.5\ngini = 0.49\nsamples = 15164\nvalue = [10371, 13702]\nclass = Available", fillcolor="#399de53e"] ;
6372 -> 6373 ;
6374 [label="(...)", fillcolor="#C0C0C0"] ;
6373 -> 6374 ;
9167 [label="(...)", fillcolor="#C0C0C0"] ;
6373 -> 9167 ;
13140 [label="cancellation_policy_moderate <= 0.5\ngini = 0.49\nsamples = 2185\nvalue = [1903, 1524]\nclass = Not Available", fillcolor="#e5813933"] ;
6372 -> 13140 ;
13141 [label="(...)", fillcolor="#C0C0C0"] ;
13140 -> 13141 ;
13472 [label="(...)", fillcolor="#C0C0C0"] ;
13140 -> 13472 ;
13965 [label="number_of_reviews <= 4.05\ngini = 0.5\nsamples = 19731\nvalue = [14594, 16548]\nclass = Available", fillcolor="#399de51e"] ;
1 -> 13965 ;
13966 [label="host_is_superhost <= 0.5\ngini = 0.5\nsamples = 17904\nvalue = [13503, 14725]\nclass = Available", fillcolor="#399de515"] ;
13965 -> 13966 ;
13967 [label="heart <= 0.5\ngini = 0.5\nsamples = 13687\nvalue = [9910, 11710]\nclass = Available", fillcolor="#399de527"] ;
13966 -> 13967 ;
13968 [label="(...)", fillcolor="#C0C0C0"] ;
13967 -> 13968 ;
18487 [label="(...)", fillcolor="#C0C0C0"] ;
13967 -> 18487 ;
19316 [label="bright <= 0.5\ngini = 0.5\nsamples = 4217\nvalue = [3593, 3015]\nclass = Not Available", fillcolor="#e5813929"] ;
13966 -> 19316 ;
19317 [label="(...)", fillcolor="#C0C0C0"] ;
19316 -> 19317 ;
21120 [label="(...)", fillcolor="#C0C0C0"] ;
19316 -> 21120 ;
21225 [label="property_type_Condominium <= 0.5\ngini = 0.47\nsamples = 1827\nvalue = [1091, 1823]\nclass = Available", fillcolor="#399de566"] ;
13965 -> 21225 ;
21226 [label="room_type_Private room <= 0.5\ngini = 0.46\nsamples = 1790\nvalue = [1028, 1823]\nclass = Available", fillcolor="#399de56f"] ;
21225 -> 21226 ;
21227 [label="(...)", fillcolor="#C0C0C0"] ;
21226 -> 21227 ;
21764 [label="(...)", fillcolor="#C0C0C0"] ;
21226 -> 21764 ;
21973 [label="gini = 0.0\nsamples = 37\nvalue = [63, 0]\nclass = Not Available", fillcolor="#e58139ff"] ;
21225 -> 21973 ;
21974 [label="uw <= 0.5\ngini = 0.49\nsamples = 3372\nvalue = [3036, 2286]\nclass = Not Available", fillcolor="#e581393f"] ;
0 -> 21974 [labeldistance=2.5, labelangle=-45, headlabel="False"] ;
21975 [label="cancellation_policy_strict <= 0.5\ngini = 0.49\nsamples = 3316\nvalue = [3019, 2223]\nclass = Not Available", fillcolor="#e5813943"] ;
21974 -> 21975 ;
21976 [label="price <= 5.52\ngini = 0.47\nsamples = 2180\nvalue = [2115, 1332]\nclass = Not Available", fillcolor="#e581395e"] ;
21975 -> 21976 ;
21977 [label="studio <= 0.5\ngini = 0.47\nsamples = 2122\nvalue = [2100, 1247]\nclass = Not Available", fillcolor="#e5813968"] ;
21976 -> 21977 ;
21978 [label="(...)", fillcolor="#C0C0C0"] ;
21977 -> 21978 ;
22791 [label="(...)", fillcolor="#C0C0C0"] ;
21977 -> 22791 ;
22856 [label="studio <= 0.5\ngini = 0.26\nsamples = 58\nvalue = [15, 85]\nclass = Available", fillcolor="#399de5d2"] ;
21976 -> 22856 ;
22857 [label="(...)", fillcolor="#C0C0C0"] ;
22856 -> 22857 ;
22870 [label="(...)", fillcolor="#C0C0C0"] ;
22856 -> 22870 ;
22877 [label="price <= 4.42\ngini = 0.5\nsamples = 1136\nvalue = [904, 891]\nclass = Not Available", fillcolor="#e5813904"] ;
21975 -> 22877 ;
22878 [label="number_of_reviews <= 3.13\ngini = 0.17\nsamples = 130\nvalue = [19, 183]\nclass = Available", fillcolor="#399de5e5"] ;
22877 -> 22878 ;
22879 [label="(...)", fillcolor="#C0C0C0"] ;
22878 -> 22879 ;
22900 [label="(...)", fillcolor="#C0C0C0"] ;
22878 -> 22900 ;
22917 [label="west <= 0.5\ngini = 0.49\nsamples = 1006\nvalue = [885, 708]\nclass = Not Available", fillcolor="#e5813933"] ;
22877 -> 22917 ;
22918 [label="(...)", fillcolor="#C0C0C0"] ;
22917 -> 22918 ;
23357 [label="(...)", fillcolor="#C0C0C0"] ;
22917 -> 23357 ;
23400 [label="number_of_reviews <= -2.9\ngini = 0.33\nsamples = 56\nvalue = [17, 63]\nclass = Available", fillcolor="#399de5ba"] ;
21974 -> 23400 ;
23401 [label="price <= 5.19\ngini = 0.47\nsamples = 12\nvalue = [5, 8]\nclass = Available", fillcolor="#399de560"] ;
23400 -> 23401 ;
23402 [label="gini = 0.0\nsamples = 5\nvalue = [0, 5]\nclass = Available", fillcolor="#399de5ff"] ;
23401 -> 23402 ;
23403 [label="weekday <= 3.5\ngini = 0.47\nsamples = 7\nvalue = [5, 3]\nclass = Not Available", fillcolor="#e5813966"] ;
23401 -> 23403 ;
23404 [label="(...)", fillcolor="#C0C0C0"] ;
23403 -> 23404 ;
23407 [label="(...)", fillcolor="#C0C0C0"] ;
23403 -> 23407 ;
23410 [label="house <= 0.5\ngini = 0.29\nsamples = 44\nvalue = [12, 55]\nclass = Available", fillcolor="#399de5c7"] ;
23400 -> 23410 ;
23411 [label="host_is_superhost <= 0.5\ngini = 0.3\nsamples = 32\nvalue = [9, 40]\nclass = Available", fillcolor="#399de5c6"] ;
23410 -> 23411 ;
23412 [label="(...)", fillcolor="#C0C0C0"] ;
23411 -> 23412 ;
23417 [label="(...)", fillcolor="#C0C0C0"] ;
23411 -> 23417 ;
23426 [label="weekday <= 1.5\ngini = 0.28\nsamples = 12\nvalue = [3, 15]\nclass = Available", fillcolor="#399de5cc"] ;
23410 -> 23426 ;
23427 [label="(...)", fillcolor="#C0C0C0"] ;
23426 -> 23427 ;
23430 [label="(...)", fillcolor="#C0C0C0"] ;
23426 -> 23430 ;
}